{"learner":{"attributes":{"best_iteration":"190","best_score":"37138.00306846044"},"feature_names":[],"feature_types":[],"gradient_booster":{"model":{"gbtree_model_param":{"num_parallel_tree":"1","num_trees":"241"},"iteration_indptr":[0,1,2,3,4,5,6,7,8,9,10,11,12,13,14,15,16,17,18,19,20,21,22,23,24,25,26,27,28,29,30,31,32,33,34,35,36,37,38,39,40,41,42,43,44,45,46,47,48,49,50,51,52,53,54,55,56,57,58,59,60,61,62,63,64,65,66,67,68,69,70,71,72,73,74,75,76,77,78,79,80,81,82,83,84,85,86,87,88,89,90,91,92,93,94,95,96,97,98,99,100,101,102,103,104,105,106,107,108,109,110,111,112,113,114,115,116,117,118,119,120,121,122,123,124,125,126,127,128,129,130,131,132,133,134,135,136,137,138,139,140,141,142,143,144,145,146,147,148,149,150,151,152,153,154,155,156,157,158,159,160,161,162,163,164,165,166,167,168,169,170,171,172,173,174,175,176,177,178,179,180,181,182,183,184,185,186,187,188,189,190,191,192,193,194,195,196,197,198,199,200,201,202,203,204,205,206,207,208,209,210,211,212,213,214,215,216,217,218,219,220,221,222,223,224,225,226,227,228,229,230,231,232,233,234,235,236,237,238,239,240,241],"tree_info":[0,0,0,0,0,0,0,0,0,0,0,0,0,0,0,0,0,0,0,0,0,0,0,0,0,0,0,0,0,0,0,0,0,0,0,0,0,0,0,0,0,0,0,0,0,0,0,0,0,0,0,0,0,0,0,0,0,0,0,0,0,0,0,0,0,0,0,0,0,0,0,0,0,0,0,0,0,0,0,0,0,0,0,0,0,0,0,0,0,0,0,0,0,0,0,0,0,0,0,0,0,0,0,0,0,0,0,0,0,0,0,0,0,0,0,0,0,0,0,0,0,0,0,0,0,0,0,0,0,0,0,0,0,0,0,0,0,0,0,0,0,0,0,0,0,0,0,0,0,0,0,0,0,0,0,0,0,0,0,0,0,0,0,0,0,0,0,0,0,0,0,0,0,0,0,0,0,0,0,0,0,0,0,0,0,0,0,0,0,0,0,0,0,0,0,0,0,0,0,0,0,0,0,0,0,0,0,0,0,0,0,0,0,0,0,0,0,0,0,0,0,0,0,0,0,0,0,0,0,0,0,0,0,0,0,0,0,0,0,0,0],"trees":[{"base_weights":[-2.1068935E1,-3.531988E4,3.950177E5,-7.223568E4,5.908141E4,3.1762256E5,1.1286414E6,-1.00426305E5,-4.3079207E4,2.7722494E4,1.17684414E5,2.5580636E5,4.900507E5,8.0452556E5,1.4579941E6,-1.1768583E5,-8.741874E4,-5.5941492E4,-2.3564871E4,1.0187309E4,4.9912797E4,9.466789E4,1.4756142E5,2.2008416E5,3.2011422E5,4.333036E5,5.760586E5,3.5573027E4,8.322931E5,5.059488E4,1.537095E6,-1.302333E5,-1.1086726E5,-9.488653E4,-7.9615125E4,-6.4132867E4,-4.8392746E4,-3.0759367E4,-1.4898725E4,1.8170858E3,2.010503E4,3.9878863E4,6.1046133E4,8.363215E4,1.0759083E5,1.3294616E5,1.6218019E5,1.9948192E5,2.4564778E5,2.988678E5,3.520274E5,4.1244303E5,4.7420066E5,5.3188625E5,6.1998694E5,4.0906293E4,4.3112758E4,1.8619044E6,1.473176E6,-1.395871E5,-1.2609612E5,-1.1574696E5,-1.0679021E5,-9.878716E4,-9.128843E4,-8.35177E4,-7.575107E4,-6.7957625E4,-6.026797E4,-4.846173E4,8.465468E5,-3.468055E4,-2.6807805E4,-1.8693174E4,-1.0654301E4,-2.245573E3,6.5551514E3,1.5781536E4,2.5253432E4,3.478066E4,4.4969832E4,5.6068875E4,6.731444E4,7.872614E4,9.0290414E4,1.0128805E5,1.1383926E5,1.27688555E5,1.4077403E5,1.5550412E5,1.7210858E5,1.908294E5,2.1242975E5,2.3312558E5,2.5818627E5,2.8943194E5,1.5878729E4,1.6975426E4,1.8234781E4,1.9730014E4,2.152964E4,2.339069E4,2.399517E4,2.5967361E4,2.705278E4,2.9549734E4,3.1695514E4,2.0315319E6,6.3520926E4,1.1456549E6,1.5169188E6,-7.361147E3,-6.8531304E3,-6.4774937E3,-6.169087E3,-5.912541E3,-5.679886E3,-5.45607E3,-5.2365845E3,-5.030966E3,-4.8479097E3,-4.655781E3,-4.4608765E3,-4.2715977E3,-4.0810989E3,-3.8855786E3,-3.6877927E3,-3.4933328E3,-3.3005837E3,-3.10748E3,-2.917049E3,-6.009242E3,-2.4056035E3,2.6613125E4,6.843315E4,-1.8200668E3,-1.6306238E3,-1.4339227E3,-1.2301968E3,-1.0349696E3,-8.35206E2,-6.201734E2,-4.1905328E2,-2.0665657E2,1.2863337E1,2.1816507E2,4.3541025E2,6.695111E2,9.092208E2,1.1699667E3,1.3994224E3,1.640258E3,1.8860006E3,2.1405178E3,2.4095925E3,2.6858484E3,2.981036E3,3.235111E3,3.497095E3,3.7784849E3,4.0916602E3,4.4280747E3,4.68748E3,4.9671616E3,5.259939E3,5.4658394E3,5.805493E3,6.261132E3,6.633346E3,6.898561E3,7.1781265E3,7.616297E3,8.0932837E3,8.433682E3,8.777797E3,9.340436E3,9.941308E3,1.0382176E4,1.0856712E4,1.1375046E4,1.1933859E4,1.2556561E4,1.3257E4,1.4048683E4,1.4895528E4,1.0573633E5,9.20901E4,6.1611688E4,5.4867082E4,7.636811E4,7.010046E4],"categories":[],"categories_nodes":[],"categories_segments":[],"categories_sizes":[],"default_left":[0,0,0,0,0,0,0,0,0,0,0,0,0,0,0,0,0,0,0,0,0,0,0,0,0,0,0,0,0,0,0,0,0,0,0,0,0,0,0,0,0,0,0,0,0,0,0,0,0,0,0,0,0,0,0,0,0,0,0,0,0,0,0,0,0,0,0,0,0,0,0,0,0,0,0,0,0,0,0,0,0,0,0,0,0,0,0,0,0,0,0,0,0,0,0,0,0,0,0,0,0,0,0,0,0,0,0,0,0,0,0,0,0,0,0,0,0,0,0,0,0,0,0,0,0,0,0,0,0,0,0,0,0,0,0,0,0,0,0,0,0,0,0,0,0,0,0,0,0,0,0,0,0,0,0,0,0,0,0,0,0,0,0,0,0,0,0,0,0,0,0,0,0,0,0,0,0,0,0,0,0,0,0,0,0,0,0,0,0,0,0],"id":0,"left_children":[1,3,5,7,9,11,13,15,17,19,21,23,25,27,29,31,33,35,37,39,41,43,45,47,49,51,53,-1,55,-1,57,59,61,63,65,67,69,71,73,75,77,79,81,83,85,87,89,91,93,95,97,99,101,103,105,-1,-1,107,109,111,113,115,117,119,121,123,125,127,129,131,133,135,137,139,141,143,145,147,149,151,153,155,157,159,161,163,165,167,169,171,173,175,177,179,181,183,-1,-1,-1,-1,-1,-1,-1,-1,-1,-1,-1,185,-1,187,189,-1,-1,-1,-1,-1,-1,-1,-1,-1,-1,-1,-1,-1,-1,-1,-1,-1,-1,-1,-1,-1,-1,-1,-1,-1,-1,-1,-1,-1,-1,-1,-1,-1,-1,-1,-1,-1,-1,-1,-1,-1,-1,-1,-1,-1,-1,-1,-1,-1,-1,-1,-1,-1,-1,-1,-1,-1,-1,-1,-1,-1,-1,-1,-1,-1,-1,-1,-1,-1,-1,-1,-1,-1,-1,-1,-1,-1,-1,-1,-1],"loss_changes":[2.6572364E16,6.09609E15,8.874635E15,1.03360697E15,9.037155E14,1.5069612E15,1.5910878E15,1.435276E14,1.5516026E14,1.2464854E14,1.178633E14,2.3902835E14,1.8185912E14,1.8841485E13,2.5945897E14,2.3493203E13,2.123915E13,2.3035923E13,1.5311416E13,1.4854574E13,1.5793736E13,1.3799998E13,1.5915136E13,3.519323E13,2.5095494E13,1.8986171E13,2.8445032E13,0E0,1.7501992E12,0E0,1.2765931E14,3.725884E12,3.5296578E12,2.6055688E12,2.682207E12,2.6373112E12,1.2012386E13,2.0782441E12,1.7939416E12,1.8680094E12,1.822618E12,1.928843E12,2.0873877E12,1.6990958E12,1.7448305E12,1.5173314E12,2.4447088E12,4.1113574E12,4.627827E12,3.8477538E12,2.2312355E12,4.6544024E12,5.1808043E10,5.700227E11,2.624225E12,0E0,0E0,1.0066115E14,7.35191E13,5.5150064E11,6.1290525E11,4.2265163E11,4.5412568E11,2.8977607E11,3.5842844E11,3.148748E11,3.4480534E11,3.2903476E11,3.186329E11,4.8567356E12,1.7329071E12,2.3848813E11,2.7484435E11,2.3436303E11,2.0898854E11,2.4682458E11,2.113713E11,2.5556419E11,1.8890936E11,2.145806E11,2.5685079E11,3.0894404E11,1.9906167E11,2.8883655E11,1.2418495E11,1.5847758E11,2.1716428E11,2.5749671E11,9.72743E10,4.2630906E11,1.4777372E11,6.773969E11,2.8897077E11,4.125853E11,6.649146E11,9.809974E11,0E0,0E0,0E0,0E0,0E0,0E0,0E0,0E0,0E0,0E0,0E0,8.7007984E12,0E0,1.2537278E12,3.4166465E12,0E0,0E0,0E0,0E0,0E0,0E0,0E0,0E0,0E0,0E0,0E0,0E0,0E0,0E0,0E0,0E0,0E0,0E0,0E0,0E0,0E0,0E0,0E0,0E0,0E0,0E0,0E0,0E0,0E0,0E0,0E0,0E0,0E0,0E0,0E0,0E0,0E0,0E0,0E0,0E0,0E0,0E0,0E0,0E0,0E0,0E0,0E0,0E0,0E0,0E0,0E0,0E0,0E0,0E0,0E0,0E0,0E0,0E0,0E0,0E0,0E0,0E0,0E0,0E0,0E0,0E0,0E0,0E0,0E0,0E0,0E0,0E0,0E0,0E0,0E0,0E0,0E0,0E0,0E0,0E0],"parents":[2147483647,0,0,1,1,2,2,3,3,4,4,5,5,6,6,7,7,8,8,9,9,10,10,11,11,12,12,13,13,14,14,15,15,16,16,17,17,18,18,19,19,20,20,21,21,22,22,23,23,24,24,25,25,26,26,28,28,30,30,31,31,32,32,33,33,34,34,35,35,36,36,37,37,38,38,39,39,40,40,41,41,42,42,43,43,44,44,45,45,46,46,47,47,48,48,49,49,50,50,51,51,52,52,53,53,54,54,57,57,58,58,59,59,60,60,61,61,62,62,63,63,64,64,65,65,66,66,67,67,68,68,69,69,70,70,71,71,72,72,73,73,74,74,75,75,76,76,77,77,78,78,79,79,80,80,81,81,82,82,83,83,84,84,85,85,86,86,87,87,88,88,89,89,90,90,91,91,92,92,93,93,94,94,95,95,107,107,109,109,110,110],"right_children":[2,4,6,8,10,12,14,16,18,20,22,24,26,28,30,32,34,36,38,40,42,44,46,48,50,52,54,-1,56,-1,58,60,62,64,66,68,70,72,74,76,78,80,82,84,86,88,90,92,94,96,98,100,102,104,106,-1,-1,108,110,112,114,116,118,120,122,124,126,128,130,132,134,136,138,140,142,144,146,148,150,152,154,156,158,160,162,164,166,168,170,172,174,176,178,180,182,184,-1,-1,-1,-1,-1,-1,-1,-1,-1,-1,-1,186,-1,188,190,-1,-1,-1,-1,-1,-1,-1,-1,-1,-1,-1,-1,-1,-1,-1,-1,-1,-1,-1,-1,-1,-1,-1,-1,-1,-1,-1,-1,-1,-1,-1,-1,-1,-1,-1,-1,-1,-1,-1,-1,-1,-1,-1,-1,-1,-1,-1,-1,-1,-1,-1,-1,-1,-1,-1,-1,-1,-1,-1,-1,-1,-1,-1,-1,-1,-1,-1,-1,-1,-1,-1,-1,-1,-1,-1,-1,-1,-1,-1,-1],"split_conditions":[1.0994647E0,-4.0838398E-2,4.1865816E0,-4.4102022E-1,4.4540405E-1,2.3233695E0,5.921932E0,-6.291241E-1,-2.3631892E-1,1.8291919E-1,7.398543E-1,1.6748413E0,3.071482E0,4.279661E0,6.0449414E0,-7.403882E-1,-5.363016E-1,-3.4635356E-1,-1.3919339E-1,6.673736E-2,3.089365E-1,5.861746E-1,8.984517E-1,1.363179E0,2.0153954E0,2.7671964E0,3.493179E0,3.5573027E4,5.7732196E0,5.059488E4,-2.3055072E-1,-8.166133E-1,-6.832194E-1,-5.842497E-1,-4.89583E-1,-3.936869E-1,1.6246959E0,-1.896003E-1,-9.001589E-2,1.3256841E-2,1.2636507E-1,2.431616E-1,3.8085857E-1,5.2224386E-1,6.5748197E-1,8.296032E-1,1.013404E0,1.2476119E0,1.5021054E0,1.8850751E0,2.1567807E0,2.5262265E0,2.7633092E0,3.0709088E0,3.5100927E0,4.0906293E4,4.3112758E4,-2.2445093E-1,5.7732196E0,-8.76241E-1,-7.7665657E-1,-7.121111E-1,-6.5678644E-1,-6.063795E-1,-5.590462E-1,-5.129423E-1,-4.6499425E-1,-4.170462E-1,-3.6971286E-1,-7.242917E-1,5.7732196E0,-2.1111546E-1,-1.631674E-1,-1.15219355E-1,-6.296827E-2,-1.0717185E-2,3.9075024E-2,9.624386E-2,1.5955988E-1,2.1857287E-1,2.8188887E-1,3.5073736E-1,4.1282395E-1,4.8167244E-1,5.640447E-1,6.328932E-1,6.8391484E-1,7.982525E-1,8.634127E-1,9.722179E-1,1.0564344E0,1.1941314E0,1.3029366E0,1.4295685E0,1.5814041E0,1.7744257E0,1.5878729E4,1.6975426E4,1.8234781E4,1.9730014E4,2.152964E4,2.339069E4,2.399517E4,2.5967361E4,2.705278E4,2.9549734E4,3.1695514E4,5.573475E-1,6.3520926E4,-2.2445093E-1,1.5635357E0,-7.361147E3,-6.8531304E3,-6.4774937E3,-6.169087E3,-5.912541E3,-5.679886E3,-5.45607E3,-5.2365845E3,-5.030966E3,-4.8479097E3,-4.655781E3,-4.4608765E3,-4.2715977E3,-4.0810989E3,-3.8855786E3,-3.6877927E3,-3.4933328E3,-3.3005837E3,-3.10748E3,-2.917049E3,-6.009242E3,-2.4056035E3,2.6613125E4,6.843315E4,-1.8200668E3,-1.6306238E3,-1.4339227E3,-1.2301968E3,-1.0349696E3,-8.35206E2,-6.201734E2,-4.1905328E2,-2.0665657E2,1.2863337E1,2.1816507E2,4.3541025E2,6.695111E2,9.092208E2,1.1699667E3,1.3994224E3,1.640258E3,1.8860006E3,2.1405178E3,2.4095925E3,2.6858484E3,2.981036E3,3.235111E3,3.497095E3,3.7784849E3,4.0916602E3,4.4280747E3,4.68748E3,4.9671616E3,5.259939E3,5.4658394E3,5.805493E3,6.261132E3,6.633346E3,6.898561E3,7.1781265E3,7.616297E3,8.0932837E3,8.433682E3,8.777797E3,9.340436E3,9.941308E3,1.0382176E4,1.0856712E4,1.1375046E4,1.1933859E4,1.2556561E4,1.3257E4,1.4048683E4,1.4895528E4,1.0573633E5,9.20901E4,6.1611688E4,5.4867082E4,7.636811E4,7.010046E4],"split_indices":[4,4,4,4,4,4,4,4,4,4,4,4,4,5,5,4,4,4,4,4,4,4,4,4,4,4,4,0,3,0,3,4,4,4,4,4,3,4,4,4,4,4,4,4,4,4,4,4,4,4,4,4,5,5,5,0,0,2,3,4,4,4,4,4,4,4,4,4,4,2,3,4,4,4,4,4,4,4,4,4,4,4,4,4,4,4,4,4,4,4,4,4,4,4,4,4,0,0,0,0,0,0,0,0,0,0,0,1,0,2,1,0,0,0,0,0,0,0,0,0,0,0,0,0,0,0,0,0,0,0,0,0,0,0,0,0,0,0,0,0,0,0,0,0,0,0,0,0,0,0,0,0,0,0,0,0,0,0,0,0,0,0,0,0,0,0,0,0,0,0,0,0,0,0,0,0,0,0,0,0,0,0,0,0,0,0,0,0,0,0,0],"split_type":[0,0,0,0,0,0,0,0,0,0,0,0,0,0,0,0,0,0,0,0,0,0,0,0,0,0,0,0,0,0,0,0,0,0,0,0,0,0,0,0,0,0,0,0,0,0,0,0,0,0,0,0,0,0,0,0,0,0,0,0,0,0,0,0,0,0,0,0,0,0,0,0,0,0,0,0,0,0,0,0,0,0,0,0,0,0,0,0,0,0,0,0,0,0,0,0,0,0,0,0,0,0,0,0,0,0,0,0,0,0,0,0,0,0,0,0,0,0,0,0,0,0,0,0,0,0,0,0,0,0,0,0,0,0,0,0,0,0,0,0,0,0,0,0,0,0,0,0,0,0,0,0,0,0,0,0,0,0,0,0,0,0,0,0,0,0,0,0,0,0,0,0,0,0,0,0,0,0,0,0,0,0,0,0,0,0,0,0,0,0,0],"sum_hessian":[1.905592E6,1.749285E6,1.56307E5,1.257527E6,4.91758E5,1.41392E5,1.4915E4,6.39352E5,6.18175E5,3.20342E5,1.71416E5,1.04081E5,3.7311E4,7.519E3,7.396E3,2.74764E5,3.64588E5,3.72591E5,2.45584E5,1.78941E5,1.41401E5,9.6827E4,7.4589E4,6.6915E4,3.7166E4,2.2483E4,1.4828E4,1.734E3,5.785E3,1.116E3,6.28E3,9.6735E4,1.78029E5,1.86297E5,1.78291E5,1.78686E5,1.93905E5,1.34184E5,1.114E5,9.7042E4,8.1899E4,7.4375E4,6.7026E4,5.2231E4,4.4596E4,3.7304E4,3.7285E4,3.7058E4,2.9857E4,2.2318E4,1.4848E4,1.4896E4,7.587E3,7.4E3,7.428E3,3.947E3,1.838E3,1.028E3,5.252E3,2.9655E4,6.708E4,8.1025E4,9.7004E4,8.9378E4,9.6919E4,8.8693E4,8.9598E4,8.9801E4,8.8885E4,1.93891E5,1.4E1,6.7347E4,6.6837E4,5.8816E4,5.2584E4,5.2245E4,4.4797E4,4.4518E4,3.7381E4,3.7165E4,3.721E4,3.7366E4,2.966E4,3.008E4,2.2151E4,2.221E4,2.2386E4,2.2326E4,1.4978E4,2.2304E4,1.4981E4,2.2223E4,1.4835E4,1.4948E4,1.4909E4,1.4846E4,7.472E3,7.482E3,7.366E3,7.523E3,7.373E3,3.618E3,3.969E3,3.15E3,4.25E3,2.424E3,5.004E3,7.97E2,2.31E2,6.22E2,4.63E3,7.354E3,2.2301E4,2.9499E4,3.7581E4,3.74E4,4.3625E4,4.5465E4,5.1539E4,4.4623E4,4.4755E4,5.1466E4,4.5453E4,4.4109E4,4.4584E4,4.5173E4,4.4425E4,4.5313E4,4.4488E4,4.4956E4,4.3929E4,9.39E2,1.92952E5,1E1,4E0,3.6751E4,3.0596E4,3.6145E4,3.0692E4,2.9277E4,2.9539E4,2.9715E4,2.2869E4,2.9783E4,2.2462E4,2.22E4,2.2597E4,2.2316E4,2.2202E4,2.2284E4,1.5097E4,2.2234E4,1.4931E4,2.2287E4,1.4923E4,2.249E4,1.4876E4,1.4886E4,1.4774E4,1.4934E4,1.5146E4,1.4787E4,7.364E3,1.4851E4,7.359E3,7.499E3,1.4887E4,1.4948E4,7.378E3,7.495E3,7.483E3,1.489E4,7.414E3,7.529E3,7.452E3,1.4804E4,7.419E3,7.376E3,7.459E3,7.446E3,7.502E3,7.419E3,7.49E3,7.449E3,7.397E3,5.47E2,2.5E2,2.14E2,4.08E2,4.233E3,3.97E2],"tree_param":{"num_deleted":"0","num_feature":"7","num_nodes":"191","size_leaf_vector":"1"}},{"base_weights":[-1.864876E1,-3.357159E4,3.7501925E5,-6.86206E4,5.6128926E4,3.015064E5,1.0739539E6,-9.542421E4,-4.0918547E4,2.6382299E4,1.1175702E5,2.4296469E5,4.65329E5,7.6386506E5,1.3879644E6,-1.12221875E5,-8.338071E4,-5.3145375E4,-2.2381135E4,9.709791E3,4.7414207E4,8.992052E4,1.401489E5,2.0907661E5,3.0408116E5,4.115394E5,5.472182E5,3.37972E4,3.952693E4,4.80544E4,1.4619159E6,-1.2448125E5,-1.0607611E5,-9.045971E4,-7.5641016E4,-6.0617945E4,-4.565621E4,-2.9656076E4,-1.4651871E4,1.7344067E3,1.910686E4,3.7885418E4,5.797871E4,7.9469336E4,1.0220747E5,1.2630192E5,1.5406489E5,1.895185E5,2.3335339E5,2.838876E5,3.3444484E5,3.9185816E5,4.5049516E5,5.0539175E5,5.8882375E5,1.5704229E6,1.3689585E6,-1.3261816E5,-1.2039932E5,-1.1075314E5,-1.0210145E5,-9.416229E4,-8.67246E4,-7.902537E4,-7.161458E4,-6.4285297E4,-5.6675402E4,-4.569841E4,6.3529383E4,-3.2945906E4,-2.5927041E4,-1.8733004E4,-1.064751E4,-2.126629E3,6.242852E3,1.4997799E4,2.3992756E4,3.303036E4,4.272786E4,5.3279438E4,6.393795E4,7.478851E4,8.57725E4,9.623094E4,1.0814351E5,1.2132592E5,1.3374148E5,1.4775972E5,1.635216E5,1.8129252E5,2.0179866E5,2.2145417E5,2.4523861E5,2.7488806E5,1.5082606E4,1.61282295E4,1.7323744E4,1.8745334E4,2.0453168E4,2.2222186E4,2.2791121E4,2.4679826E4,2.569931E4,2.807614E4,3.0105129E4,7.398218E4,1.5991104E6,5.1833676E4,1.404675E6,-6.994858E3,-6.5102925E3,-6.1934175E3,-5.917927E3,-5.662527E3,-5.4346655E3,-5.2164023E3,-5.0077764E3,-4.809783E3,-4.6196357E3,-4.4378193E3,-4.2518037E3,-4.0420818E3,-3.8444255E3,-3.6578503E3,-3.486821E3,-3.3047512E3,-3.107283E3,-2.92327E3,-2.7425505E3,-5.726819E3,-2.2673767E3,-1.7493206E3,-1.5671339E3,-1.3839354E3,-1.2138612E3,-1.0297177E3,-8.4176117E2,-6.412228E2,-4.2395483E2,-2.289772E2,-1.8161224E1,2.0774551E2,4.143557E2,6.359875E2,8.6452344E2,1.0661991E3,1.2879633E3,1.5073441E3,1.74515E3,1.9822225E3,2.2413425E3,2.4939722E3,2.7763867E3,3.0729578E3,3.3221453E3,3.5900356E3,3.8868457E3,4.1193354E3,4.372623E3,4.621476E3,4.905488E3,5.2993276E3,5.6293647E3,5.828865E3,6.1846206E3,6.55337E3,6.8188354E3,7.236277E3,7.68844E3,8.0109126E3,8.339945E3,8.67939E3,9.257959E3,9.862472E3,1.0315736E4,1.0804781E4,1.1337022E4,1.1928931E4,1.2593647E4,1.3346174E4,1.4148401E4,7.746015E4,8.9743484E4,7.106559E4,5.7813168E4],"categories":[],"categories_nodes":[],"categories_segments":[],"categories_sizes":[],"default_left":[0,0,0,0,0,0,0,0,0,0,0,0,0,0,0,0,0,0,0,0,0,0,0,0,0,0,0,0,0,0,0,0,0,0,0,0,0,0,0,0,0,0,0,0,0,0,0,0,0,0,0,0,0,0,0,0,0,0,0,0,0,0,0,0,0,0,0,0,0,0,0,0,0,0,0,0,0,0,0,0,0,0,0,0,0,0,0,0,0,0,0,0,0,0,0,0,0,0,0,0,0,0,0,0,0,0,0,0,0,0,0,0,0,0,0,0,0,0,0,0,0,0,0,0,0,0,0,0,0,0,0,0,0,0,0,0,0,0,0,0,0,0,0,0,0,0,0,0,0,0,0,0,0,0,0,0,0,0,0,0,0,0,0,0,0,0,0,0,0,0,0,0,0,0,0,0,0,0,0,0,0,0,0,0,0],"id":1,"left_children":[1,3,5,7,9,11,13,15,17,19,21,23,25,27,29,31,33,35,37,39,41,43,45,47,49,51,53,-1,-1,-1,55,57,59,61,63,65,67,69,71,73,75,77,79,81,83,85,87,89,91,93,95,97,99,101,103,105,107,109,111,113,115,117,119,121,123,125,127,129,-1,131,133,135,137,139,141,143,145,147,149,151,153,155,157,159,161,163,165,167,169,171,173,175,177,179,-1,-1,-1,-1,-1,-1,-1,-1,-1,-1,-1,-1,181,-1,183,-1,-1,-1,-1,-1,-1,-1,-1,-1,-1,-1,-1,-1,-1,-1,-1,-1,-1,-1,-1,-1,-1,-1,-1,-1,-1,-1,-1,-1,-1,-1,-1,-1,-1,-1,-1,-1,-1,-1,-1,-1,-1,-1,-1,-1,-1,-1,-1,-1,-1,-1,-1,-1,-1,-1,-1,-1,-1,-1,-1,-1,-1,-1,-1,-1,-1,-1,-1,-1,-1,-1,-1,-1,-1,-1,-1],"loss_changes":[2.3972714E16,5.4975463E15,8.037776E15,9.335933E14,8.1295356E14,1.357462E15,1.4486023E15,1.2926939E14,1.4014129E14,1.122483E14,1.0611294E14,2.1593431E14,1.639244E14,1.7037867E13,2.3207104E14,2.0091589E13,2.0385257E13,2.0847436E13,1.3817564E13,1.3382413E13,1.4247212E13,1.2417287E13,1.4320092E13,3.181175E13,2.271313E13,1.7071153E13,2.5407147E13,0E0,0E0,0E0,6.141696E13,2.9433948E12,3.2928977E12,2.6801938E12,2.4171942E12,2.6928103E12,1.039325E13,1.5521441E12,1.9470232E12,1.6813638E12,1.6454045E12,1.7483705E12,1.8763638E12,1.5363903E12,1.567294E12,1.364793E12,2.1886214E12,3.7174284E12,4.1787347E12,3.4897951E12,2.0109842E12,4.2077258E12,4.0533754E10,4.9378702E11,2.3445153E12,5.1883205E12,3.8918846E13,5.04256E11,4.0540465E11,4.0775346E11,4.0594152E11,3.423223E11,3.2447136E11,3.687632E11,2.3014985E11,3.6997117E11,2.9031295E11,4.4892475E12,0E0,2.1890073E11,1.7081303E11,2.080983E11,2.838018E11,2.2505746E11,1.9015677E11,2.3235186E11,1.759888E11,1.9964887E11,2.3936054E11,2.841641E11,1.7965043E11,2.5883889E11,1.1952089E11,1.4925011E11,2.0182991E11,2.3689429E11,8.744285E10,3.839298E11,1.3388218E11,6.3115887E11,2.6541556E11,3.7500433E11,6.011612E11,8.797301E11,0E0,0E0,0E0,0E0,0E0,0E0,0E0,0E0,0E0,0E0,0E0,0E0,1.863479E13,0E0,1.1040213E13,0E0,0E0,0E0,0E0,0E0,0E0,0E0,0E0,0E0,0E0,0E0,0E0,0E0,0E0,0E0,0E0,0E0,0E0,0E0,0E0,0E0,0E0,0E0,0E0,0E0,0E0,0E0,0E0,0E0,0E0,0E0,0E0,0E0,0E0,0E0,0E0,0E0,0E0,0E0,0E0,0E0,0E0,0E0,0E0,0E0,0E0,0E0,0E0,0E0,0E0,0E0,0E0,0E0,0E0,0E0,0E0,0E0,0E0,0E0,0E0,0E0,0E0,0E0,0E0,0E0,0E0,0E0,0E0,0E0,0E0,0E0,0E0,0E0,0E0,0E0,0E0],"parents":[2147483647,0,0,1,1,2,2,3,3,4,4,5,5,6,6,7,7,8,8,9,9,10,10,11,11,12,12,13,13,14,14,15,15,16,16,17,17,18,18,19,19,20,20,21,21,22,22,23,23,24,24,25,25,26,26,30,30,31,31,32,32,33,33,34,34,35,35,36,36,37,37,38,38,39,39,40,40,41,41,42,42,43,43,44,44,45,45,46,46,47,47,48,48,49,49,50,50,51,51,52,52,53,53,54,54,55,55,56,56,57,57,58,58,59,59,60,60,61,61,62,62,63,63,64,64,65,65,66,66,67,67,69,69,70,70,71,71,72,72,73,73,74,74,75,75,76,76,77,77,78,78,79,79,80,80,81,81,82,82,83,83,84,84,85,85,86,86,87,87,88,88,89,89,90,90,91,91,92,92,93,93,106,106,108,108],"right_children":[2,4,6,8,10,12,14,16,18,20,22,24,26,28,30,32,34,36,38,40,42,44,46,48,50,52,54,-1,-1,-1,56,58,60,62,64,66,68,70,72,74,76,78,80,82,84,86,88,90,92,94,96,98,100,102,104,106,108,110,112,114,116,118,120,122,124,126,128,130,-1,132,134,136,138,140,142,144,146,148,150,152,154,156,158,160,162,164,166,168,170,172,174,176,178,180,-1,-1,-1,-1,-1,-1,-1,-1,-1,-1,-1,-1,182,-1,184,-1,-1,-1,-1,-1,-1,-1,-1,-1,-1,-1,-1,-1,-1,-1,-1,-1,-1,-1,-1,-1,-1,-1,-1,-1,-1,-1,-1,-1,-1,-1,-1,-1,-1,-1,-1,-1,-1,-1,-1,-1,-1,-1,-1,-1,-1,-1,-1,-1,-1,-1,-1,-1,-1,-1,-1,-1,-1,-1,-1,-1,-1,-1,-1,-1,-1,-1,-1,-1,-1,-1,-1,-1,-1,-1,-1],"split_conditions":[1.0994647E0,-4.0838398E-2,4.1865816E0,-4.4102022E-1,4.4540405E-1,2.3233695E0,5.921932E0,-6.3342714E-1,-2.3631892E-1,1.8291919E-1,7.398543E-1,1.6748413E0,3.071482E0,4.279661E0,6.0449414E0,-7.4653536E-1,-5.363016E-1,-3.4205052E-1,-1.4534056E-1,6.673736E-2,3.089365E-1,5.861746E-1,8.984517E-1,1.363179E0,2.0153954E0,2.7671964E0,3.493179E0,3.37972E4,3.952693E4,4.80544E4,-2.2445093E-1,-8.166133E-1,-6.875224E-1,-5.842497E-1,-4.8527998E-1,-3.8999858E-1,5.7003284E0,-1.896003E-1,-9.67778E-2,1.3256841E-2,1.2636507E-1,2.431616E-1,3.8085857E-1,5.2224386E-1,6.5748197E-1,8.296032E-1,1.013404E0,1.2476119E0,1.5021054E0,1.8850751E0,2.1567807E0,2.5262265E0,2.7633092E0,3.0709088E0,3.5100927E0,-1.055485E0,5.7003284E0,-8.76241E-1,-7.8526264E-1,-7.176436E-1,-6.610895E-1,-6.1006784E-1,-5.6273454E-1,-5.086393E-1,-4.606912E-1,-4.1335788E-1,-3.6602455E-1,-7.242917E-1,6.3529383E4,-2.160332E-1,-1.6869988E-1,-1.2136654E-1,-6.973017E-2,-1.8708527E-2,3.9075024E-2,9.624386E-2,1.4849494E-1,2.0627849E-1,2.689798E-1,3.359841E-1,4.1282395E-1,4.8167244E-1,5.425296E-1,6.089192E-1,7.1280664E-1,7.675166E-1,8.634127E-1,9.722179E-1,1.0564344E0,1.1461833E0,1.3029366E0,1.4295685E0,1.5814041E0,1.7744257E0,1.5082606E4,1.61282295E4,1.7323744E4,1.8745334E4,2.0453168E4,2.2222186E4,2.2791121E4,2.4679826E4,2.569931E4,2.807614E4,3.0105129E4,7.398218E4,1.7372867E-1,5.1833676E4,2.1634493E0,-6.994858E3,-6.5102925E3,-6.1934175E3,-5.917927E3,-5.662527E3,-5.4346655E3,-5.2164023E3,-5.0077764E3,-4.809783E3,-4.6196357E3,-4.4378193E3,-4.2518037E3,-4.0420818E3,-3.8444255E3,-3.6578503E3,-3.486821E3,-3.3047512E3,-3.107283E3,-2.92327E3,-2.7425505E3,-5.726819E3,-2.2673767E3,-1.7493206E3,-1.5671339E3,-1.3839354E3,-1.2138612E3,-1.0297177E3,-8.4176117E2,-6.412228E2,-4.2395483E2,-2.289772E2,-1.8161224E1,2.0774551E2,4.143557E2,6.359875E2,8.6452344E2,1.0661991E3,1.2879633E3,1.5073441E3,1.74515E3,1.9822225E3,2.2413425E3,2.4939722E3,2.7763867E3,3.0729578E3,3.3221453E3,3.5900356E3,3.8868457E3,4.1193354E3,4.372623E3,4.621476E3,4.905488E3,5.2993276E3,5.6293647E3,5.828865E3,6.1846206E3,6.55337E3,6.8188354E3,7.236277E3,7.68844E3,8.0109126E3,8.339945E3,8.67939E3,9.257959E3,9.862472E3,1.0315736E4,1.0804781E4,1.1337022E4,1.1928931E4,1.2593647E4,1.3346174E4,1.4148401E4,7.746015E4,8.9743484E4,7.106559E4,5.7813168E4],"split_indices":[4,4,4,4,4,4,4,4,4,4,4,4,4,5,5,4,4,4,4,4,4,4,4,4,4,4,4,0,0,0,2,4,4,4,4,4,2,4,4,4,4,4,4,4,4,4,4,4,4,4,4,4,5,5,5,0,2,4,4,4,4,4,4,4,4,4,4,2,0,4,4,4,4,4,4,4,4,4,4,4,4,4,4,4,4,4,4,4,4,4,4,4,4,4,0,0,0,0,0,0,0,0,0,0,0,0,1,0,0,0,0,0,0,0,0,0,0,0,0,0,0,0,0,0,0,0,0,0,0,0,0,0,0,0,0,0,0,0,0,0,0,0,0,0,0,0,0,0,0,0,0,0,0,0,0,0,0,0,0,0,0,0,0,0,0,0,0,0,0,0,0,0,0,0,0,0,0,0,0,0,0,0,0,0,0],"split_type":[0,0,0,0,0,0,0,0,0,0,0,0,0,0,0,0,0,0,0,0,0,0,0,0,0,0,0,0,0,0,0,0,0,0,0,0,0,0,0,0,0,0,0,0,0,0,0,0,0,0,0,0,0,0,0,0,0,0,0,0,0,0,0,0,0,0,0,0,0,0,0,0,0,0,0,0,0,0,0,0,0,0,0,0,0,0,0,0,0,0,0,0,0,0,0,0,0,0,0,0,0,0,0,0,0,0,0,0,0,0,0,0,0,0,0,0,0,0,0,0,0,0,0,0,0,0,0,0,0,0,0,0,0,0,0,0,0,0,0,0,0,0,0,0,0,0,0,0,0,0,0,0,0,0,0,0,0,0,0,0,0,0,0,0,0,0,0,0,0,0,0,0,0,0,0,0,0,0,0,0,0,0,0,0,0],"sum_hessian":[1.90507E6,1.748629E6,1.56441E5,1.257343E6,4.91286E5,1.41554E5,1.4887E4,6.39033E5,6.1831E5,3.20111E5,1.71175E5,1.04289E5,3.7265E4,7.492E3,7.395E3,2.66844E5,3.72189E5,3.7257E5,2.4574E5,1.78562E5,1.41549E5,9.676E4,7.4415E4,6.7092E4,3.7197E4,2.2495E4,1.477E4,1.75E3,5.742E3,1.094E3,6.301E3,8.9097E4,1.77747E5,1.94386E5,1.77803E5,1.86488E5,1.86082E5,1.26589E5,1.19151E5,9.6588E4,8.1974E4,7.4425E4,6.7124E4,5.229E4,4.447E4,3.7305E4,3.711E4,3.7162E4,2.993E4,2.2346E4,1.4851E4,1.4952E4,7.543E3,7.372E3,7.398E3,2.9E3,3.401E3,2.9754E4,5.9343E4,8.1646E4,9.6101E4,9.7606E4,9.678E4,9.6594E4,8.1209E4,9.6608E4,8.988E4,1.86077E5,5E0,6.7251E4,5.9338E4,5.9008E4,6.0143E4,5.203E4,4.4558E4,4.4529E4,3.7445E4,3.7168E4,3.7257E4,3.7535E4,2.9589E4,3.0014E4,2.2276E4,2.2168E4,2.2302E4,2.2364E4,1.4941E4,2.2275E4,1.4835E4,2.2264E4,1.4898E4,1.4966E4,1.4964E4,1.4843E4,7.503E3,7.486E3,7.365E3,7.543E3,7.409E3,3.571E3,3.972E3,3.132E3,4.24E3,2.435E3,4.963E3,7.09E2,2.191E3,3.33E2,3.068E3,7.392E3,2.2362E4,2.1958E4,3.7385E4,3.6879E4,4.4767E4,4.4794E4,5.1307E4,4.5393E4,5.2213E4,4.3902E4,5.2878E4,5.2194E4,4.44E4,4.4569E4,3.664E4,5.2323E4,4.4285E4,4.5352E4,4.4528E4,9.42E2,1.85135E5,2.9581E4,3.767E4,2.8773E4,3.0565E4,2.9785E4,2.9223E4,3.001E4,3.0133E4,2.176E4,3.027E4,2.2045E4,2.2513E4,2.2339E4,2.219E4,1.4919E4,2.2526E4,1.4641E4,2.2527E4,1.5098E4,2.2159E4,1.495E4,2.2585E4,1.4885E4,1.4704E4,1.492E4,1.5094E4,7.404E3,1.4872E4,7.349E3,1.4819E4,1.5031E4,7.271E3,7.455E3,1.4909E4,7.441E3,7.5E3,1.4818E4,7.457E3,7.413E3,7.422E3,7.455E3,1.4809E4,7.444E3,7.454E3,7.453E3,7.513E3,7.486E3,7.478E3,7.492E3,7.351E3,1.753E3,4.38E2,2.871E3,1.97E2],"tree_param":{"num_deleted":"0","num_feature":"7","num_nodes":"185","size_leaf_vector":"1"}},{"base_weights":[-3.725198E1,-3.1910607E4,3.5650725E5,-6.520683E4,5.3321492E4,2.867141E5,1.017266E6,-9.0325984E4,-3.8552766E4,2.5020998E4,1.06192664E5,2.3068819E5,4.4253956E5,7.2583994E5,1.3140294E6,-1.05860445E5,-7.833125E4,-5.019219E4,-2.1269297E4,9.214853E3,4.505768E4,8.54417E4,1.3315361E5,1.985841E5,2.8885466E5,3.9113028E5,5.1980278E5,3.209576E4,7.5082144E5,4.565451E4,1.3855509E6,-1.16911945E5,-9.938625E4,-8.483363E4,-7.093967E4,-5.6740105E4,-4.2813375E4,-2.7762492E4,-1.3447072E4,1.6382087E3,1.8155602E4,3.5989438E4,5.509962E4,7.550548E4,9.7106555E4,1.1997477E5,1.4636819E5,1.7999803E5,2.2170889E5,2.697219E5,3.1767816E5,3.722742E5,4.279621E5,4.8010938E5,5.5944256E5,3.687523E4,3.8925043E4,1.6926646E6,1.3239572E6,-1.2465334E5,-1.1261974E5,-1.03666266E5,-9.5761414E4,-8.8359195E4,-8.129161E4,-7.4179516E4,-6.74095E4,-6.0437516E4,-5.304796E4,-4.2877414E4,6.918819E5,-3.0935307E4,-2.3778205E4,-1.6869072E4,-9.605299E3,-2.0213666E3,5.9141777E3,1.4248597E4,2.2800314E4,3.1383943E4,4.058875E4,5.061971E4,6.0744723E4,6.9527086E4,7.997136E4,9.141833E4,1.0273045E5,1.15248336E5,1.2706431E5,1.4035994E5,1.5534316E5,1.7221439E5,1.9171833E5,2.1040944E5,2.3299122E5,2.6123039E5,1.4327507E4,1.5319729E4,1.6455402E4,1.7805045E4,1.943048E4,2.1109314E4,2.1653139E4,2.3441506E4,2.4412746E4,2.6682363E4,2.860035E4,1.5930709E6,1.7890219E6,5.0957164E4,1.3637331E6,-6.4947725E3,-6.0601655E3,-5.775997E3,-5.5146255E3,-5.2781323E3,-5.072325E3,-4.877064E3,-4.681927E3,-4.500687E3,-4.321534E3,-4.1485166E3,-3.9700457E3,-3.795524E3,-3.6238848E3,-3.4448672E3,-3.2837988E3,-3.109494E3,-2.9232644E3,-2.735346E3,-2.557551E3,-2.149672E3,3.5130781E3,2.0115357E4,4.8267605E4,-1.6436399E3,-1.4526244E3,-1.2735131E3,-1.11015E3,-9.3372217E2,-7.535724E2,-5.5964996E2,-3.768253E2,-1.875189E2,1.32468405E1,1.9670647E2,3.9302316E2,6.04114E2,8.214549E2,1.0129775E3,1.2240323E3,1.4786014E3,1.7040057E3,1.9303896E3,2.1769653E3,2.4220508E3,2.6938977E3,2.919165E3,3.1561262E3,3.339616E3,3.5470552E3,3.843602E3,4.1539624E3,4.389981E3,4.661197E3,4.9277456E3,5.242042E3,5.648521E3,5.9916733E3,6.2258794E3,6.4778916E3,6.72679E3,7.163687E3,7.609953E3,7.9246704E3,8.424679E3,8.980154E3,9.369738E3,9.799179E3,1.0265715E4,1.0771078E4,1.1329387E4,1.1964856E4,1.2678841E4,1.344383E4,7.77833E4,9.922036E4,7.930686E4,1.0786494E5,6.8611336E4,6.0412977E4],"categories":[],"categories_nodes":[],"categories_segments":[],"categories_sizes":[],"default_left":[0,0,0,0,0,0,0,0,0,0,0,0,0,0,0,0,0,0,0,0,0,0,0,0,0,0,0,0,0,0,0,0,0,0,0,0,0,0,0,0,0,0,0,0,0,0,0,0,0,0,0,0,0,0,0,0,0,0,0,0,0,0,0,0,0,0,0,0,0,0,0,0,0,0,0,0,0,0,0,0,0,0,0,0,0,0,0,0,0,0,0,0,0,0,0,0,0,0,0,0,0,0,0,0,0,0,0,0,0,0,0,0,0,0,0,0,0,0,0,0,0,0,0,0,0,0,0,0,0,0,0,0,0,0,0,0,0,0,0,0,0,0,0,0,0,0,0,0,0,0,0,0,0,0,0,0,0,0,0,0,0,0,0,0,0,0,0,0,0,0,0,0,0,0,0,0,0,0,0,0,0,0,0,0,0,0,0,0,0,0,0],"id":2,"left_children":[1,3,5,7,9,11,13,15,17,19,21,23,25,27,29,31,33,35,37,39,41,43,45,47,49,51,53,-1,55,-1,57,59,61,63,65,67,69,71,73,75,77,79,81,83,85,87,89,91,93,95,97,99,101,103,105,-1,-1,107,109,111,113,115,117,119,121,123,125,127,129,131,133,135,137,139,141,143,145,147,149,151,153,155,157,159,161,163,165,167,169,171,173,175,177,179,181,183,-1,-1,-1,-1,-1,-1,-1,-1,-1,-1,-1,185,187,-1,189,-1,-1,-1,-1,-1,-1,-1,-1,-1,-1,-1,-1,-1,-1,-1,-1,-1,-1,-1,-1,-1,-1,-1,-1,-1,-1,-1,-1,-1,-1,-1,-1,-1,-1,-1,-1,-1,-1,-1,-1,-1,-1,-1,-1,-1,-1,-1,-1,-1,-1,-1,-1,-1,-1,-1,-1,-1,-1,-1,-1,-1,-1,-1,-1,-1,-1,-1,-1,-1,-1,-1,-1,-1,-1,-1,-1,-1,-1,-1,-1],"loss_changes":[2.1651946E16,4.963275E15,7.209779E15,8.4201116E14,7.351136E14,1.2344455E15,1.2907816E15,1.2063275E14,1.2274708E14,1.0134668E14,9.581951E13,1.941787E14,1.4833529E14,1.5322027E13,2.1090652E14,2.0172656E13,1.7554202E13,1.7614533E13,1.247157E13,1.2118136E13,1.2848596E13,1.1211677E13,1.2956037E13,2.876769E13,2.0313316E13,1.5438528E13,2.3235505E13,0E0,1.5644418E12,0E0,1.1649562E14,3.4483219E12,2.7501212E12,2.4199456E12,1.9506533E12,2.634023E12,8.09551E12,1.6954132E12,1.4641015E12,1.5152771E12,1.4887724E12,1.5695253E12,1.6903884E12,1.3901266E12,1.4148562E12,1.2353735E12,1.9838051E12,3.3574565E12,3.7580964E12,3.103114E12,1.8017388E12,3.7882954E12,4.1070625E10,4.5741402E11,2.1152714E12,0E0,0E0,7.1782325E12,6.205691E13,6.563247E11,4.397644E11,3.3265864E11,3.5480456E11,3.0306363E11,3.0118458E11,2.5712761E11,2.0656108E11,3.2994073E11,3.0141946E11,2.253348E12,7.994831E11,2.714973E11,1.5798265E11,1.9089431E11,1.7227265E11,2.0626294E11,1.7206162E11,2.1034015E11,1.5955342E11,1.8003211E11,2.151678E11,2.6245438E11,1.6263833E11,8.172182E10,2.8175657E11,1.3649943E11,1.8688141E11,2.203184E11,7.8550925E10,3.589653E11,1.23513864E11,5.8404844E11,2.3662585E11,3.370207E11,5.4874918E11,7.974546E11,0E0,0E0,0E0,0E0,0E0,0E0,0E0,0E0,0E0,0E0,0E0,4.568503E12,3.5655745E13,0E0,4.45066E12,0E0,0E0,0E0,0E0,0E0,0E0,0E0,0E0,0E0,0E0,0E0,0E0,0E0,0E0,0E0,0E0,0E0,0E0,0E0,0E0,0E0,0E0,0E0,0E0,0E0,0E0,0E0,0E0,0E0,0E0,0E0,0E0,0E0,0E0,0E0,0E0,0E0,0E0,0E0,0E0,0E0,0E0,0E0,0E0,0E0,0E0,0E0,0E0,0E0,0E0,0E0,0E0,0E0,0E0,0E0,0E0,0E0,0E0,0E0,0E0,0E0,0E0,0E0,0E0,0E0,0E0,0E0,0E0,0E0,0E0,0E0,0E0,0E0,0E0,0E0,0E0,0E0,0E0,0E0,0E0],"parents":[2147483647,0,0,1,1,2,2,3,3,4,4,5,5,6,6,7,7,8,8,9,9,10,10,11,11,12,12,13,13,14,14,15,15,16,16,17,17,18,18,19,19,20,20,21,21,22,22,23,23,24,24,25,25,26,26,28,28,30,30,31,31,32,32,33,33,34,34,35,35,36,36,37,37,38,38,39,39,40,40,41,41,42,42,43,43,44,44,45,45,46,46,47,47,48,48,49,49,50,50,51,51,52,52,53,53,54,54,57,57,58,58,59,59,60,60,61,61,62,62,63,63,64,64,65,65,66,66,67,67,68,68,69,69,70,70,71,71,72,72,73,73,74,74,75,75,76,76,77,77,78,78,79,79,80,80,81,81,82,82,83,83,84,84,85,85,86,86,87,87,88,88,89,89,90,90,91,91,92,92,93,93,94,94,95,95,107,107,108,108,110,110],"right_children":[2,4,6,8,10,12,14,16,18,20,22,24,26,28,30,32,34,36,38,40,42,44,46,48,50,52,54,-1,56,-1,58,60,62,64,66,68,70,72,74,76,78,80,82,84,86,88,90,92,94,96,98,100,102,104,106,-1,-1,108,110,112,114,116,118,120,122,124,126,128,130,132,134,136,138,140,142,144,146,148,150,152,154,156,158,160,162,164,166,168,170,172,174,176,178,180,182,184,-1,-1,-1,-1,-1,-1,-1,-1,-1,-1,-1,186,188,-1,190,-1,-1,-1,-1,-1,-1,-1,-1,-1,-1,-1,-1,-1,-1,-1,-1,-1,-1,-1,-1,-1,-1,-1,-1,-1,-1,-1,-1,-1,-1,-1,-1,-1,-1,-1,-1,-1,-1,-1,-1,-1,-1,-1,-1,-1,-1,-1,-1,-1,-1,-1,-1,-1,-1,-1,-1,-1,-1,-1,-1,-1,-1,-1,-1,-1,-1,-1,-1,-1,-1,-1,-1,-1,-1,-1,-1,-1,-1,-1,-1],"split_conditions":[1.0994647E0,-4.0838398E-2,4.1865816E0,-4.3671718E-1,4.4540405E-1,2.3233695E0,5.921932E0,-6.254358E-1,-2.3631892E-1,1.8291919E-1,7.398543E-1,1.6748413E0,3.071482E0,4.279661E0,6.0449414E0,-7.34241E-1,-5.283103E-1,-3.3405918E-1,-1.3919339E-1,6.673736E-2,3.089365E-1,5.861746E-1,8.984517E-1,1.363179E0,2.0153954E0,2.7671964E0,3.493179E0,3.209576E4,5.7732196E0,4.565451E4,-2.3055072E-1,-8.0493367E-1,-6.7830163E-1,-5.7687306E-1,-4.8097694E-1,-3.8569555E-1,1.7170162E0,-1.8406785E-1,-9.001589E-2,1.3256841E-2,1.2636507E-1,2.431616E-1,3.8085857E-1,5.013434E-1,6.5748197E-1,8.296032E-1,1.013404E0,1.2476119E0,1.5021054E0,1.8850751E0,2.1567807E0,2.5262265E0,2.7633092E0,3.0709088E0,3.5100927E0,3.687523E4,3.8925043E4,4.1275226E-2,5.7732196E0,-8.491934E-1,-7.6805055E-1,-7.0227563E-1,-6.487951E-1,-5.990029E-1,-5.516696E-1,-5.0495094E-1,-4.570029E-1,-4.0966958E-1,-3.5864794E-1,4.837464E-2,3.782439E0,-2.1111546E-1,-1.631674E-1,-1.15219355E-1,-6.296827E-2,-1.0717185E-2,3.9075024E-2,9.624386E-2,1.4849494E-1,2.1857287E-1,2.8188887E-1,3.5073736E-1,4.1282395E-1,4.638456E-1,5.425296E-1,6.089192E-1,6.8391484E-1,7.982525E-1,8.634127E-1,9.3410534E-1,1.0564344E0,1.1941314E0,1.3029366E0,1.4295685E0,1.5814041E0,1.7744257E0,1.4327507E4,1.5319729E4,1.6455402E4,1.7805045E4,1.943048E4,2.1109314E4,2.1653139E4,2.3441506E4,2.4412746E4,2.6682363E4,2.860035E4,2.4400918E0,-3.575553E-1,5.0957164E4,2.2665973E0,-6.4947725E3,-6.0601655E3,-5.775997E3,-5.5146255E3,-5.2781323E3,-5.072325E3,-4.877064E3,-4.681927E3,-4.500687E3,-4.321534E3,-4.1485166E3,-3.9700457E3,-3.795524E3,-3.6238848E3,-3.4448672E3,-3.2837988E3,-3.109494E3,-2.9232644E3,-2.735346E3,-2.557551E3,-2.149672E3,3.5130781E3,2.0115357E4,4.8267605E4,-1.6436399E3,-1.4526244E3,-1.2735131E3,-1.11015E3,-9.3372217E2,-7.535724E2,-5.5964996E2,-3.768253E2,-1.875189E2,1.32468405E1,1.9670647E2,3.9302316E2,6.04114E2,8.214549E2,1.0129775E3,1.2240323E3,1.4786014E3,1.7040057E3,1.9303896E3,2.1769653E3,2.4220508E3,2.6938977E3,2.919165E3,3.1561262E3,3.339616E3,3.5470552E3,3.843602E3,4.1539624E3,4.389981E3,4.661197E3,4.9277456E3,5.242042E3,5.648521E3,5.9916733E3,6.2258794E3,6.4778916E3,6.72679E3,7.163687E3,7.609953E3,7.9246704E3,8.424679E3,8.980154E3,9.369738E3,9.799179E3,1.0265715E4,1.0771078E4,1.1329387E4,1.1964856E4,1.2678841E4,1.344383E4,7.77833E4,9.922036E4,7.930686E4,1.0786494E5,6.8611336E4,6.0412977E4],"split_indices":[4,4,4,4,4,4,4,4,4,4,4,4,4,5,5,4,4,4,4,4,4,4,4,4,4,4,4,0,3,0,3,4,4,4,4,4,3,4,4,4,4,4,4,4,4,4,4,4,4,4,4,4,5,5,5,0,0,1,3,4,4,4,4,4,4,4,4,4,4,3,3,4,4,4,4,4,4,4,4,4,4,4,4,4,4,4,4,4,4,4,4,4,4,4,4,4,0,0,0,0,0,0,0,0,0,0,0,0,0,0,0,0,0,0,0,0,0,0,0,0,0,0,0,0,0,0,0,0,0,0,0,0,0,0,0,0,0,0,0,0,0,0,0,0,0,0,0,0,0,0,0,0,0,0,0,0,0,0,0,0,0,0,0,0,0,0,0,0,0,0,0,0,0,0,0,0,0,0,0,0,0,0,0,0,0,0,0,0,0,0,0],"split_type":[0,0,0,0,0,0,0,0,0,0,0,0,0,0,0,0,0,0,0,0,0,0,0,0,0,0,0,0,0,0,0,0,0,0,0,0,0,0,0,0,0,0,0,0,0,0,0,0,0,0,0,0,0,0,0,0,0,0,0,0,0,0,0,0,0,0,0,0,0,0,0,0,0,0,0,0,0,0,0,0,0,0,0,0,0,0,0,0,0,0,0,0,0,0,0,0,0,0,0,0,0,0,0,0,0,0,0,0,0,0,0,0,0,0,0,0,0,0,0,0,0,0,0,0,0,0,0,0,0,0,0,0,0,0,0,0,0,0,0,0,0,0,0,0,0,0,0,0,0,0,0,0,0,0,0,0,0,0,0,0,0,0,0,0,0,0,0,0,0,0,0,0,0,0,0,0,0,0,0,0,0,0,0,0,0,0,0,0,0,0,0],"sum_hessian":[1.905263E6,1.748919E6,1.56344E5,1.257624E6,4.91295E5,1.41409E5,1.4935E4,6.47453E5,6.10171E5,3.20006E5,1.71289E5,1.04014E5,3.7395E4,7.537E3,7.398E3,2.82098E5,3.65355E5,3.64619E5,2.45552E5,1.78889E5,1.41117E5,9.6794E4,7.4495E4,6.7025E4,3.6989E4,2.2458E4,1.4937E4,1.735E3,5.802E3,1.122E3,6.276E3,1.04204E5,1.77894E5,1.94363E5,1.70992E5,1.93183E5,1.71436E5,1.34173E5,1.11379E5,9.6832E4,8.2057E4,7.4156E4,6.6961E4,5.2274E4,4.452E4,3.7303E4,3.7192E4,3.7164E4,2.9861E4,2.2238E4,1.4751E4,1.4861E4,7.597E3,7.47E3,7.467E3,3.936E3,1.866E3,1.044E3,5.232E3,3.7158E4,6.7046E4,8.1562E4,9.6332E4,9.7396E4,9.6967E4,8.9152E4,8.184E4,9.6515E4,9.6668E4,1.71422E5,1.4E1,7.4689E4,5.9484E4,5.8906E4,5.2473E4,5.2177E4,4.4655E4,4.457E4,3.7487E4,3.7057E4,3.7099E4,3.7339E4,2.9622E4,2.2359E4,2.9915E4,2.2142E4,2.2378E4,2.2392E4,1.4911E4,2.2288E4,1.4904E4,2.2342E4,1.4822E4,1.4929E4,1.4932E4,1.4791E4,7.447E3,7.437E3,7.314E3,7.479E3,7.382E3,3.602E3,3.995E3,3.157E3,4.313E3,2.46E3,5.007E3,5.22E2,5.22E2,6.07E2,4.625E3,1.4734E4,2.2424E4,2.9827E4,3.7219E4,4.396E4,3.7602E4,5.2375E4,4.3957E4,5.2397E4,4.4999E4,5.134E4,4.5627E4,4.4176E4,4.4976E4,4.402E4,3.782E4,5.109E4,4.5425E4,5.1554E4,4.5114E4,1.71247E5,1.75E2,8E0,6E0,3.6802E4,3.7887E4,2.8671E4,3.0813E4,2.9385E4,2.9521E4,2.9686E4,2.2787E4,2.9709E4,2.2468E4,2.2137E4,2.2518E4,2.2361E4,2.2209E4,1.4928E4,2.2559E4,2.217E4,1.4887E4,2.2205E4,1.4894E4,2.2386E4,1.4953E4,1.4875E4,1.4747E4,7.637E3,1.4722E4,1.4991E4,1.4924E4,7.387E3,1.4755E4,7.529E3,1.4849E4,1.4977E4,7.415E3,7.402E3,7.509E3,7.448E3,1.484E4,7.484E3,7.42E3,1.4875E4,7.467E3,7.383E3,7.439E3,7.424E3,7.505E3,7.427E3,7.505E3,7.409E3,7.382E3,4.81E2,4.1E1,3.4E2,1.82E2,4.378E3,2.47E2],"tree_param":{"num_deleted":"0","num_feature":"7","num_nodes":"191","size_leaf_vector":"1"}},{"base_weights":[4.3006252E1,-2.949063E4,3.4757525E5,-6.1273832E4,5.3981223E4,2.7857497E5,9.704781E5,-8.553356E4,-3.5561223E4,2.6998018E4,1.0667839E5,2.2402886E5,4.202589E5,6.900687E5,1.2557355E6,-1.0017315E5,-7.386804E4,-4.737874E4,-1.932663E4,1.1360289E4,4.67105E4,8.7738836E4,1.3413244E5,1.9266872E5,2.7445888E5,3.7154934E5,4.936908E5,3.0488178E4,7.135047E5,4.3396113E4,1.324213E6,-1.1106076E5,-9.409613E4,-8.0057766E4,-6.68718E4,-5.3394316E4,-4.026612E4,-2.6016848E4,-1.1400868E4,3.8945613E3,2.0182967E4,3.771573E4,5.674428E4,7.750897E4,9.967857E4,1.2327502E5,1.4765808E5,1.7469105E5,2.1060633E5,2.5624516E5,3.0186097E5,3.5367538E5,4.065044E5,4.5598366E5,5.314584E5,3.502301E4,3.7015465E4,1.6411232E6,1.2602008E6,-1.1842387E5,-1.0697693E5,-9.8158805E4,-9.037757E4,-8.338897E4,-7.671938E4,-6.99497E4,-6.3540387E4,-5.6904523E4,-4.9904164E4,-4.0324285E4,1.02241694E6,-2.9385527E4,-2.2226096E4,-1.5167907E4,-7.672225E3,2.7942584E2,8.145288E3,1.6365653E4,2.478721E4,3.3202684E4,4.2288195E4,5.226183E4,6.2376168E4,7.300415E4,8.357339E4,9.389526E4,1.0549187E5,1.1844425E5,1.30551336E5,1.4176964E5,1.5352716E5,1.6721425E5,1.8215717E5,1.9990239E5,2.2138661E5,2.4815319E5,2.7223956E5,1.4555062E4,1.5634526E4,1.6916547E4,1.8459717E4,2.0053795E4,2.0563818E4,2.2273225E4,2.3182303E4,2.5343195E4,5.434907E5,1.8087272E6,5.3084906E4,9.6927994E5,1.2993531E6,-6.169755E3,-5.757403E3,-5.487064E3,-5.239014E3,-5.014297E3,-4.80436E3,-4.605214E3,-4.4204497E3,-4.2478022E3,-4.0803438E3,-3.915486E3,-3.7458015E3,-3.5797317E3,-3.416317E3,-3.2451577E3,-3.0921538E3,-2.9259924E3,-2.7491287E3,-2.584318E3,-2.4198164E3,-5.3327695E3,-1.9975859E3,3.1835084E4,6.726928E4,-1.5436876E3,-1.3580007E3,-1.1908096E3,-1.0126004E3,-8.457587E2,-6.7147424E2,-4.8261813E2,-2.8339316E2,-7.21254E1,1.2583087E2,3.1109042E2,5.0425412E2,7.074689E2,9.300845E2,1.1166967E3,1.3201888E3,1.5299493E3,1.7471682E3,1.9734432E3,2.2067712E3,2.451702E3,2.721438E3,2.9979744E3,3.238194E3,3.508729E3,3.7937317E3,4.0997603E3,4.337151E3,4.601351E3,4.878065E3,5.171263E3,5.477067E3,5.8045024E3,6.1532163E3,6.3901064E3,6.6660273E3,6.9440776E3,7.230933E3,7.5278003E3,7.824125E3,8.185945E3,8.532391E3,8.903014E3,9.309878E3,9.751634E3,1.0233717E4,1.0765019E4,1.1369038E4,1.2045764E4,1.2774606E4,1.3430382E4,1.3758851E4,2.6859607E4,2.7653863E4,7.8230586E4,9.335358E4,5.1694637E4,4.6683996E4,6.54763E4,5.9541246E4],"categories":[],"categories_nodes":[],"categories_segments":[],"categories_sizes":[],"default_left":[0,0,0,0,0,0,0,0,0,0,0,0,0,0,0,0,0,0,0,0,0,0,0,0,0,0,0,0,0,0,0,0,0,0,0,0,0,0,0,0,0,0,0,0,0,0,0,0,0,0,0,0,0,0,0,0,0,0,0,0,0,0,0,0,0,0,0,0,0,0,0,0,0,0,0,0,0,0,0,0,0,0,0,0,0,0,0,0,0,0,0,0,0,0,0,0,0,0,0,0,0,0,0,0,0,0,0,0,0,0,0,0,0,0,0,0,0,0,0,0,0,0,0,0,0,0,0,0,0,0,0,0,0,0,0,0,0,0,0,0,0,0,0,0,0,0,0,0,0,0,0,0,0,0,0,0,0,0,0,0,0,0,0,0,0,0,0,0,0,0,0,0,0,0,0,0,0,0,0,0,0,0,0,0,0,0,0,0,0,0,0,0,0,0,0],"id":3,"left_children":[1,3,5,7,9,11,13,15,17,19,21,23,25,27,29,31,33,35,37,39,41,43,45,47,49,51,53,-1,55,-1,57,59,61,63,65,67,69,71,73,75,77,79,81,83,85,87,89,91,93,95,97,99,101,103,105,-1,-1,107,109,111,113,115,117,119,121,123,125,127,129,131,133,135,137,139,141,143,145,147,149,151,153,155,157,159,161,163,165,167,169,171,173,175,177,179,181,183,185,-1,-1,-1,-1,-1,-1,-1,-1,-1,187,189,-1,191,193,-1,-1,-1,-1,-1,-1,-1,-1,-1,-1,-1,-1,-1,-1,-1,-1,-1,-1,-1,-1,-1,-1,-1,-1,-1,-1,-1,-1,-1,-1,-1,-1,-1,-1,-1,-1,-1,-1,-1,-1,-1,-1,-1,-1,-1,-1,-1,-1,-1,-1,-1,-1,-1,-1,-1,-1,-1,-1,-1,-1,-1,-1,-1,-1,-1,-1,-1,-1,-1,-1,-1,-1,-1,-1,-1,-1,-1,-1,-1,-1,-1,-1,-1,-1],"loss_changes":[1.9558622E16,4.6595306E15,6.4147377E15,7.93441E14,6.8868606E14,1.0383663E15,1.1896866E15,1.1176471E14,1.18469425E14,9.873987E13,8.527067E13,1.5338724E14,1.33411885E14,1.369504E13,1.9475851E14,1.9193135E13,1.5768301E13,1.5288406E13,1.3793598E13,1.1765279E13,1.2786218E13,1.1847533E13,9.814269E12,1.9255278E13,1.8487687E13,1.3888314E13,2.0965346E13,0E0,1.5112916E12,0E0,1.2508448E14,3.1134486E12,2.8052847E12,2.142786E12,1.748857E12,2.3691442E12,1.016258E13,1.8006986E12,1.672419E12,1.4867812E12,1.4385288E12,1.5405008E12,1.6875866E12,1.422104E12,1.4957224E12,1.290235E12,1.0084449E12,1.6377918E12,3.410741E12,2.8254174E12,1.6390669E12,3.4154385E12,3.1675384E10,3.9473434E11,1.924548E12,0E0,0E0,1.0004938E14,5.8186606E13,5.8965203E11,3.9460012E11,3.8252052E11,3.225923E11,2.6320096E11,2.710527E11,2.324651E11,1.859251E11,2.9641985E11,2.5841946E11,4.042403E12,2.6455572E11,2.46537E11,2.07876E11,1.7968923E11,2.3746524E11,2.0142476E11,1.6585038E11,2.2156725E11,1.4657624E11,1.6938277E11,1.9153709E11,2.5822652E11,1.673695E11,2.3837068E11,1.0432073E11,1.448377E11,1.7550646E11,2.286399E11,9.5730794E10,1.0244168E11,1.0744129E11,1.513976E11,2.142115E11,3.0943897E11,4.9492787E11,7.274601E11,6.073352E9,0E0,0E0,0E0,0E0,0E0,0E0,0E0,0E0,0E0,3.489661E9,8.658117E12,0E0,4.6768167E11,3.5159676E12,0E0,0E0,0E0,0E0,0E0,0E0,0E0,0E0,0E0,0E0,0E0,0E0,0E0,0E0,0E0,0E0,0E0,0E0,0E0,0E0,0E0,0E0,0E0,0E0,0E0,0E0,0E0,0E0,0E0,0E0,0E0,0E0,0E0,0E0,0E0,0E0,0E0,0E0,0E0,0E0,0E0,0E0,0E0,0E0,0E0,0E0,0E0,0E0,0E0,0E0,0E0,0E0,0E0,0E0,0E0,0E0,0E0,0E0,0E0,0E0,0E0,0E0,0E0,0E0,0E0,0E0,0E0,0E0,0E0,0E0,0E0,0E0,0E0,0E0,0E0,0E0,0E0,0E0,0E0,0E0,0E0,0E0,0E0,0E0],"parents":[2147483647,0,0,1,1,2,2,3,3,4,4,5,5,6,6,7,7,8,8,9,9,10,10,11,11,12,12,13,13,14,14,15,15,16,16,17,17,18,18,19,19,20,20,21,21,22,22,23,23,24,24,25,25,26,26,28,28,30,30,31,31,32,32,33,33,34,34,35,35,36,36,37,37,38,38,39,39,40,40,41,41,42,42,43,43,44,44,45,45,46,46,47,47,48,48,49,49,50,50,51,51,52,52,53,53,54,54,57,57,58,58,59,59,60,60,61,61,62,62,63,63,64,64,65,65,66,66,67,67,68,68,69,69,70,70,71,71,72,72,73,73,74,74,75,75,76,76,77,77,78,78,79,79,80,80,81,81,82,82,83,83,84,84,85,85,86,86,87,87,88,88,89,89,90,90,91,91,92,92,93,93,94,94,95,95,96,96,106,106,107,107,109,109,110,110],"right_children":[2,4,6,8,10,12,14,16,18,20,22,24,26,28,30,32,34,36,38,40,42,44,46,48,50,52,54,-1,56,-1,58,60,62,64,66,68,70,72,74,76,78,80,82,84,86,88,90,92,94,96,98,100,102,104,106,-1,-1,108,110,112,114,116,118,120,122,124,126,128,130,132,134,136,138,140,142,144,146,148,150,152,154,156,158,160,162,164,166,168,170,172,174,176,178,180,182,184,186,-1,-1,-1,-1,-1,-1,-1,-1,-1,188,190,-1,192,194,-1,-1,-1,-1,-1,-1,-1,-1,-1,-1,-1,-1,-1,-1,-1,-1,-1,-1,-1,-1,-1,-1,-1,-1,-1,-1,-1,-1,-1,-1,-1,-1,-1,-1,-1,-1,-1,-1,-1,-1,-1,-1,-1,-1,-1,-1,-1,-1,-1,-1,-1,-1,-1,-1,-1,-1,-1,-1,-1,-1,-1,-1,-1,-1,-1,-1,-1,-1,-1,-1,-1,-1,-1,-1,-1,-1,-1,-1,-1,-1,-1,-1,-1,-1],"split_conditions":[1.1461833E0,-2.6085151E-2,4.1865816E0,-4.3302888E-1,4.8167244E-1,2.3233695E0,5.921932E0,-6.211328E-1,-2.3631892E-1,2.0627849E-1,7.982525E-1,1.6748413E0,3.071482E0,4.279661E0,6.0449414E0,-7.34241E-1,-5.2462196E-1,-3.2975614E-1,-1.3366091E-1,8.579364E-2,3.359841E-1,6.328932E-1,9.722179E-1,1.363179E0,2.0153954E0,2.7671964E0,3.493179E0,3.0488178E4,5.7732196E0,4.3396113E4,-2.3055072E-1,-8.0493367E-1,-6.739986E-1,-5.731847E-1,-4.7728863E-1,-3.8200724E-1,3.782439E0,-1.8406785E-1,-8.325399E-2,3.0468963E-2,1.4849494E-1,2.689798E-1,4.1282395E-1,5.640447E-1,7.1280664E-1,8.984517E-1,1.0564344E0,1.2476119E0,1.5021054E0,1.8850751E0,2.1567807E0,2.5262265E0,2.7633092E0,3.0709088E0,3.5100927E0,3.502301E4,3.7015465E4,-2.2445093E-1,5.7732196E0,-8.491934E-1,-7.6805055E-1,-7.0227563E-1,-6.451068E-1,-5.953146E-1,-5.4798126E-1,-5.0126266E-1,-4.5269987E-1,-4.0536654E-1,-3.5864794E-1,-7.242917E-1,-5.293816E-1,-2.0558299E-1,-1.5702023E-1,-1.0907216E-1,-5.5591647E-2,4.6507805E-3,5.7516582E-2,1.1591485E-1,1.7062481E-1,2.3086724E-1,2.954127E-1,3.6549062E-1,4.4540405E-1,5.2224386E-1,6.089192E-1,6.8391484E-1,7.675166E-1,8.634127E-1,9.3410534E-1,1.013404E0,1.0994647E0,1.1941314E0,1.3029366E0,1.4295685E0,1.5814041E0,1.7744257E0,-3.465424E-1,1.4555062E4,1.5634526E4,1.6916547E4,1.8459717E4,2.0053795E4,2.0563818E4,2.2273225E4,2.3182303E4,2.5343195E4,4.4139495E0,-1.6756574E0,5.3084906E4,-2.2445093E-1,1.5635357E0,-6.169755E3,-5.757403E3,-5.487064E3,-5.239014E3,-5.014297E3,-4.80436E3,-4.605214E3,-4.4204497E3,-4.2478022E3,-4.0803438E3,-3.915486E3,-3.7458015E3,-3.5797317E3,-3.416317E3,-3.2451577E3,-3.0921538E3,-2.9259924E3,-2.7491287E3,-2.584318E3,-2.4198164E3,-5.3327695E3,-1.9975859E3,3.1835084E4,6.726928E4,-1.5436876E3,-1.3580007E3,-1.1908096E3,-1.0126004E3,-8.457587E2,-6.7147424E2,-4.8261813E2,-2.8339316E2,-7.21254E1,1.2583087E2,3.1109042E2,5.0425412E2,7.074689E2,9.300845E2,1.1166967E3,1.3201888E3,1.5299493E3,1.7471682E3,1.9734432E3,2.2067712E3,2.451702E3,2.721438E3,2.9979744E3,3.238194E3,3.508729E3,3.7937317E3,4.0997603E3,4.337151E3,4.601351E3,4.878065E3,5.171263E3,5.477067E3,5.8045024E3,6.1532163E3,6.3901064E3,6.6660273E3,6.9440776E3,7.230933E3,7.5278003E3,7.824125E3,8.185945E3,8.532391E3,8.903014E3,9.309878E3,9.751634E3,1.0233717E4,1.0765019E4,1.1369038E4,1.2045764E4,1.2774606E4,1.3430382E4,1.3758851E4,2.6859607E4,2.7653863E4,7.8230586E4,9.335358E4,5.1694637E4,4.6683996E4,6.54763E4,5.9541246E4],"split_indices":[4,4,4,4,4,4,4,4,4,4,4,4,4,5,5,4,4,4,4,4,4,4,4,4,4,4,4,0,3,0,3,4,4,4,4,4,3,4,4,4,4,4,4,4,4,4,4,4,4,4,4,4,5,5,5,0,0,2,3,4,4,4,4,4,4,4,4,4,4,2,1,4,4,4,4,4,4,4,4,4,4,4,4,4,4,4,4,4,4,4,4,4,4,4,4,4,1,0,0,0,0,0,0,0,0,0,3,1,0,2,1,0,0,0,0,0,0,0,0,0,0,0,0,0,0,0,0,0,0,0,0,0,0,0,0,0,0,0,0,0,0,0,0,0,0,0,0,0,0,0,0,0,0,0,0,0,0,0,0,0,0,0,0,0,0,0,0,0,0,0,0,0,0,0,0,0,0,0,0,0,0,0,0,0,0,0,0,0,0,0,0,0,0,0,0],"split_type":[0,0,0,0,0,0,0,0,0,0,0,0,0,0,0,0,0,0,0,0,0,0,0,0,0,0,0,0,0,0,0,0,0,0,0,0,0,0,0,0,0,0,0,0,0,0,0,0,0,0,0,0,0,0,0,0,0,0,0,0,0,0,0,0,0,0,0,0,0,0,0,0,0,0,0,0,0,0,0,0,0,0,0,0,0,0,0,0,0,0,0,0,0,0,0,0,0,0,0,0,0,0,0,0,0,0,0,0,0,0,0,0,0,0,0,0,0,0,0,0,0,0,0,0,0,0,0,0,0,0,0,0,0,0,0,0,0,0,0,0,0,0,0,0,0,0,0,0,0,0,0,0,0,0,0,0,0,0,0,0,0,0,0,0,0,0,0,0,0,0,0,0,0,0,0,0,0,0,0,0,0,0,0,0,0,0,0,0,0,0,0,0,0,0,0],"sum_hessian":[1.905574E6,1.756321E6,1.49253E5,1.271991E6,4.8433E5,1.3437E5,1.4883E4,6.54485E5,6.17506E5,3.20316E5,1.64014E5,9.7021E4,3.7349E4,7.507E3,7.376E3,2.90241E5,3.64244E5,3.57368E5,2.60138E5,1.7862E5,1.41696E5,9.706E4,6.6954E4,5.9824E4,3.7197E4,2.2458E4,1.4891E4,1.702E3,5.805E3,1.109E3,6.267E3,1.03963E5,1.86278E5,1.93256E5,1.70988E5,1.93612E5,1.63756E5,1.41063E5,1.19075E5,9.6751E4,8.1869E4,7.4719E4,6.6977E4,5.2277E4,4.4783E4,3.7146E4,2.9808E4,2.9884E4,2.994E4,2.2351E4,1.4846E4,1.4867E4,7.591E3,7.458E3,7.433E3,3.923E3,1.882E3,1.049E3,5.218E3,3.708E4,6.6883E4,8.9008E4,9.727E4,9.672E4,9.6536E4,8.8865E4,8.2123E4,9.6521E4,9.7091E4,1.63748E5,8E0,7.4686E4,6.6377E4,5.9231E4,5.9844E4,5.2285E4,4.4466E4,4.4762E4,3.7107E4,3.7608E4,3.7111E4,3.73E4,2.9677E4,3.0003E4,2.2274E4,2.2458E4,2.2325E4,2.2335E4,1.4811E4,1.4892E4,1.4916E4,1.4943E4,1.4941E4,1.5033E4,1.4907E4,1.4853E4,7.498E3,7.461E3,7.385E3,7.487E3,7.38E3,3.591E3,4E3,3.168E3,4.29E3,2.456E3,4.977E3,8.12E2,2.37E2,6.22E2,4.596E3,1.4714E4,2.2366E4,2.9593E4,3.729E4,4.3892E4,4.5116E4,5.1794E4,4.5476E4,5.144E4,4.528E4,5.1275E4,4.5261E4,4.4118E4,4.4747E4,4.553E4,3.6593E4,5.2428E4,4.4093E4,4.4482E4,5.2609E4,9.13E2,1.62835E5,5E0,3E0,4.4749E4,2.9937E4,3.6758E4,2.9619E4,2.9536E4,2.9695E4,3.0102E4,2.9742E4,2.9545E4,2.274E4,2.2329E4,2.2137E4,2.2484E4,2.2278E4,1.4745E4,2.2362E4,1.5076E4,2.2532E4,1.4699E4,2.2412E4,1.4992E4,2.2308E4,1.4762E4,1.4915E4,1.5122E4,1.4881E4,1.4888E4,7.386E3,1.4894E4,7.564E3,1.4799E4,7.526E3,1.4813E4,7.522E3,7.456E3,7.355E3,7.42E3,7.472E3,7.464E3,7.452E3,7.429E3,7.514E3,7.441E3,7.5E3,7.461E3,7.572E3,7.415E3,7.492E3,7.495E3,7.358E3,3.394E3,4.104E3,3.038E3,1.939E3,1.62E2,6.5E2,2.11E2,4.11E2,4.192E3,4.04E2],"tree_param":{"num_deleted":"0","num_feature":"7","num_nodes":"195","size_leaf_vector":"1"}},{"base_weights":[-3.2890957E1,-2.8036904E4,3.303047E5,-5.822232E4,5.126433E4,2.64629E5,9.214607E5,-8.125918E4,-3.380553E4,2.4777611E4,9.971229E4,2.1288184E5,3.9935425E5,6.550855E5,1.191313E6,-9.55382E4,-7.04509E4,-4.5041684E4,-1.8364822E4,1.0130093E4,4.2545027E4,8.0198055E4,1.2504224E5,1.8307394E5,2.6067888E5,3.5299028E5,4.6930178E5,2.895553E4,6.7795156E5,4.120056E4,1.2566605E6,-1.06111695E5,-9.0029445E4,-7.655838E4,-6.3778707E4,-5.048186E4,-3.8011523E4,-2.4717146E4,-1.0831186E4,3.096485E3,1.7749719E4,3.414153E4,5.1826508E4,7.089447E4,9.105183E4,1.12577734E5,1.3759878E5,1.6596762E5,2.0004956E5,2.434655E5,2.867017E5,3.3611262E5,3.8628784E5,4.3332316E5,5.0485522E5,3.328988E4,3.517181E4,1.5284148E6,1.2020279E6,-1.13741414E5,-1.02716766E5,-9.392169E4,-8.6425586E4,-7.973695E4,-7.336475E4,-6.6940414E4,-6.060112E4,-5.3785254E4,-4.6919465E4,-3.8083562E4,7.6726644E5,-2.7917357E4,-2.1112006E4,-1.3991836E4,-6.804035E3,-2.3862274E2,6.5604077E3,1.4163145E4,2.2062184E4,2.9905883E4,3.8357258E4,4.7602184E4,5.7062758E4,6.674753E4,7.642587E4,8.574238E4,9.6369336E4,1.0817592E5,1.1918013E5,1.3204697E5,1.4586155E5,1.5885678E5,1.7304436E5,1.8986867E5,2.1026888E5,2.3574189E5,2.5868034E5,1.3823721E4,1.4851733E4,1.6071335E4,1.753905E4,1.9054752E4,1.9542809E4,2.1160066E4,2.2030438E4,2.4058676E4,5.1614622E5,1.683689E6,5.0247305E4,9.221799E5,1.2393878E6,-6.01194E3,-5.579858E3,-5.2778784E3,-5.0243936E3,-4.8003867E3,-4.593019E3,-4.417002E3,-4.239206E3,-4.074875E3,-3.9116216E3,-3.7563477E3,-3.594975E3,-3.4252266E3,-3.2706326E3,-3.1091985E3,-2.952208E3,-2.7798672E3,-2.598345E3,-2.4273777E3,-2.277373E3,-4.7433315E3,-1.8822635E3,2.3606928E4,6.020345E4,-1.4841775E3,-1.3103271E3,-1.130935E3,-9.618463E2,-7.8392755E2,-5.938014E2,-4.1140366E2,-2.4407002E2,-9.499086E1,6.7505844E1,2.3842781E2,4.164191E2,6.066105E2,8.0985785E2,1.0272089E3,1.21385E3,1.4171821E3,1.6123849E3,1.8321532E3,2.046928E3,2.2846223E3,2.5262273E3,2.7415183E3,2.9640115E3,3.2016948E3,3.470406E3,3.6749167E3,3.894836E3,4.1192754E3,4.3710186E3,4.6339976E3,4.9124507E3,5.302095E3,5.6241016E3,5.846111E3,6.070685E3,6.46718E3,6.8678423E3,7.151568E3,7.433155E3,7.776984E3,8.1056304E3,8.455994E3,8.844669E3,9.264665E3,9.719452E3,1.022451E4,1.0797784E4,1.1441598E4,1.2130636E4,1.30721045E4,1.2757533E4,2.5498412E4,2.6284312E4,7.230818E4,8.6658586E4,4.922176E4,4.4335E4,6.2334824E4,5.4929184E4],"categories":[],"categories_nodes":[],"categories_segments":[],"categories_sizes":[],"default_left":[0,0,0,0,0,0,0,0,0,0,0,0,0,0,0,0,0,0,0,0,0,0,0,0,0,0,0,0,0,0,0,0,0,0,0,0,0,0,0,0,0,0,0,0,0,0,0,0,0,0,0,0,0,0,0,0,0,0,0,0,0,0,0,0,0,0,0,0,0,0,0,0,0,0,0,0,0,0,0,0,0,0,0,0,0,0,0,0,0,0,0,0,0,0,0,0,0,0,0,0,0,0,0,0,0,0,0,0,0,0,0,0,0,0,0,0,0,0,0,0,0,0,0,0,0,0,0,0,0,0,0,0,0,0,0,0,0,0,0,0,0,0,0,0,0,0,0,0,0,0,0,0,0,0,0,0,0,0,0,0,0,0,0,0,0,0,0,0,0,0,0,0,0,0,0,0,0,0,0,0,0,0,0,0,0,0,0,0,0,0,0,0,0,0,0],"id":4,"left_children":[1,3,5,7,9,11,13,15,17,19,21,23,25,27,29,31,33,35,37,39,41,43,45,47,49,51,53,-1,55,-1,57,59,61,63,65,67,69,71,73,75,77,79,81,83,85,87,89,91,93,95,97,99,101,103,105,-1,-1,107,109,111,113,115,117,119,121,123,125,127,129,131,133,135,137,139,141,143,145,147,149,151,153,155,157,159,161,163,165,167,169,171,173,175,177,179,181,183,185,-1,-1,-1,-1,-1,-1,-1,-1,-1,187,189,-1,191,193,-1,-1,-1,-1,-1,-1,-1,-1,-1,-1,-1,-1,-1,-1,-1,-1,-1,-1,-1,-1,-1,-1,-1,-1,-1,-1,-1,-1,-1,-1,-1,-1,-1,-1,-1,-1,-1,-1,-1,-1,-1,-1,-1,-1,-1,-1,-1,-1,-1,-1,-1,-1,-1,-1,-1,-1,-1,-1,-1,-1,-1,-1,-1,-1,-1,-1,-1,-1,-1,-1,-1,-1,-1,-1,-1,-1,-1,-1,-1,-1,-1,-1,-1,-1],"loss_changes":[1.7629514E16,4.2053319E15,5.7819376E15,7.1573456E14,6.2152874E14,9.344013E14,1.06961436E15,1.010383E14,1.07171245E14,8.149667E13,8.461314E13,1.379318E14,1.20463095E14,1.262962E13,1.764845E14,1.6420197E13,1.518083E13,1.3672424E13,1.245116E13,9.199101E12,1.103518E13,9.758568E12,1.1644193E13,1.728872E13,1.6591996E13,1.2443326E13,1.8743774E13,0E0,1.3147969E12,0E0,9.135503E13,2.4908126E12,2.5932207E12,1.9691083E12,1.78523E12,2.3694462E12,9.078001E12,1.6279939E12,1.5149291E12,1.031148E12,1.2740282E12,1.3250058E12,1.4845487E12,1.1894207E12,1.2517481E12,1.07380893E12,1.682889E12,1.4679393E12,3.0745255E12,2.570538E12,1.4821664E12,3.0872762E12,2.9393682E10,3.572876E11,1.7437567E12,0E0,0E0,8.340961E13,5.354804E13,4.009419E11,4.1285373E11,3.7453457E11,2.952119E11,2.5185957E11,2.4521579E11,2.0884278E11,2.1528524E11,3.4168478E11,2.1444637E11,3.8781038E12,1.23629E12,2.2516702E11,1.871121E11,2.378034E11,1.4326458E11,1.2002043E11,1.3866264E11,1.8563046E11,1.2526918E11,1.3463716E11,1.6318359E11,2.0542023E11,1.4534102E11,2.1048695E11,9.032853E10,1.1864847E11,1.4547524E11,1.9431372E11,6.1186507E10,3.010168E11,9.69052E10,1.3498948E11,1.9488414E11,2.7430748E11,4.4647527E11,6.502178E11,6.7108864E9,0E0,0E0,0E0,0E0,0E0,0E0,0E0,0E0,0E0,2.831994E10,6.9667054E12,0E0,4.965385E11,3.3763812E12,0E0,0E0,0E0,0E0,0E0,0E0,0E0,0E0,0E0,0E0,0E0,0E0,0E0,0E0,0E0,0E0,0E0,0E0,0E0,0E0,0E0,0E0,0E0,0E0,0E0,0E0,0E0,0E0,0E0,0E0,0E0,0E0,0E0,0E0,0E0,0E0,0E0,0E0,0E0,0E0,0E0,0E0,0E0,0E0,0E0,0E0,0E0,0E0,0E0,0E0,0E0,0E0,0E0,0E0,0E0,0E0,0E0,0E0,0E0,0E0,0E0,0E0,0E0,0E0,0E0,0E0,0E0,0E0,0E0,0E0,0E0,0E0,0E0,0E0,0E0,0E0,0E0,0E0,0E0,0E0,0E0,0E0,0E0,0E0],"parents":[2147483647,0,0,1,1,2,2,3,3,4,4,5,5,6,6,7,7,8,8,9,9,10,10,11,11,12,12,13,13,14,14,15,15,16,16,17,17,18,18,19,19,20,20,21,21,22,22,23,23,24,24,25,25,26,26,28,28,30,30,31,31,32,32,33,33,34,34,35,35,36,36,37,37,38,38,39,39,40,40,41,41,42,42,43,43,44,44,45,45,46,46,47,47,48,48,49,49,50,50,51,51,52,52,53,53,54,54,57,57,58,58,59,59,60,60,61,61,62,62,63,63,64,64,65,65,66,66,67,67,68,68,69,69,70,70,71,71,72,72,73,73,74,74,75,75,76,76,77,77,78,78,79,79,80,80,81,81,82,82,83,83,84,84,85,85,86,86,87,87,88,88,89,89,90,90,91,91,92,92,93,93,94,94,95,95,96,96,106,106,107,107,109,109,110,110],"right_children":[2,4,6,8,10,12,14,16,18,20,22,24,26,28,30,32,34,36,38,40,42,44,46,48,50,52,54,-1,56,-1,58,60,62,64,66,68,70,72,74,76,78,80,82,84,86,88,90,92,94,96,98,100,102,104,106,-1,-1,108,110,112,114,116,118,120,122,124,126,128,130,132,134,136,138,140,142,144,146,148,150,152,154,156,158,160,162,164,166,168,170,172,174,176,178,180,182,184,186,-1,-1,-1,-1,-1,-1,-1,-1,-1,188,190,-1,192,194,-1,-1,-1,-1,-1,-1,-1,-1,-1,-1,-1,-1,-1,-1,-1,-1,-1,-1,-1,-1,-1,-1,-1,-1,-1,-1,-1,-1,-1,-1,-1,-1,-1,-1,-1,-1,-1,-1,-1,-1,-1,-1,-1,-1,-1,-1,-1,-1,-1,-1,-1,-1,-1,-1,-1,-1,-1,-1,-1,-1,-1,-1,-1,-1,-1,-1,-1,-1,-1,-1,-1,-1,-1,-1,-1,-1,-1,-1,-1,-1,-1,-1,-1,-1],"split_conditions":[1.1461833E0,-2.6085151E-2,4.1865816E0,-4.3302888E-1,4.638456E-1,2.3233695E0,5.921932E0,-6.254358E-1,-2.3631892E-1,1.9459884E-1,7.675166E-1,1.6748413E0,3.071482E0,4.279661E0,6.0449414E0,-7.403882E-1,-5.283103E-1,-3.2545313E-1,-1.3366091E-1,7.595814E-2,3.218456E-1,6.089192E-1,9.3410534E-1,1.363179E0,2.0153954E0,2.7671964E0,3.493179E0,2.895553E4,5.7732196E0,4.120056E4,-2.3055072E-1,-8.166133E-1,-6.7830163E-1,-5.7687306E-1,-4.8097694E-1,-3.777042E-1,1.8181758E0,-1.8406785E-1,-7.649208E-2,2.2477621E-2,1.3743E-1,2.5545597E-1,3.9622656E-1,5.425296E-1,6.8391484E-1,8.634127E-1,1.0564344E0,1.2476119E0,1.5021054E0,1.8850751E0,2.1567807E0,2.5262265E0,2.7633092E0,3.0709088E0,3.5100927E0,3.328988E4,3.517181E4,-2.2445093E-1,5.7732196E0,-8.76241E-1,-7.7665657E-1,-7.071934E-1,-6.5309817E-1,-6.0269123E-1,-5.553579E-1,-5.0495094E-1,-4.570029E-1,-4.0536654E-1,-3.543449E-1,-6.718084E-1,5.7732196E0,-2.1111546E-1,-1.5702023E-1,-1.0292498E-1,-4.821502E-2,-3.3405616E-3,4.8295803E-2,1.0546464E-1,1.7062481E-1,2.3086724E-1,2.954127E-1,3.6549062E-1,4.2880663E-1,5.013434E-1,5.640447E-1,6.328932E-1,7.1280664E-1,8.296032E-1,8.984517E-1,1.013404E0,1.0994647E0,1.1941314E0,1.3029366E0,1.4295685E0,1.5814041E0,1.7744257E0,2.0363396E-1,1.3823721E4,1.4851733E4,1.6071335E4,1.753905E4,1.9054752E4,1.9542809E4,2.1160066E4,2.2030438E4,2.4058676E4,4.4139495E0,-1.055485E0,5.0247305E4,-2.2445093E-1,2.2665973E0,-6.01194E3,-5.579858E3,-5.2778784E3,-5.0243936E3,-4.8003867E3,-4.593019E3,-4.417002E3,-4.239206E3,-4.074875E3,-3.9116216E3,-3.7563477E3,-3.594975E3,-3.4252266E3,-3.2706326E3,-3.1091985E3,-2.952208E3,-2.7798672E3,-2.598345E3,-2.4273777E3,-2.277373E3,-4.7433315E3,-1.8822635E3,2.3606928E4,6.020345E4,-1.4841775E3,-1.3103271E3,-1.130935E3,-9.618463E2,-7.8392755E2,-5.938014E2,-4.1140366E2,-2.4407002E2,-9.499086E1,6.7505844E1,2.3842781E2,4.164191E2,6.066105E2,8.0985785E2,1.0272089E3,1.21385E3,1.4171821E3,1.6123849E3,1.8321532E3,2.046928E3,2.2846223E3,2.5262273E3,2.7415183E3,2.9640115E3,3.2016948E3,3.470406E3,3.6749167E3,3.894836E3,4.1192754E3,4.3710186E3,4.6339976E3,4.9124507E3,5.302095E3,5.6241016E3,5.846111E3,6.070685E3,6.46718E3,6.8678423E3,7.151568E3,7.433155E3,7.776984E3,8.1056304E3,8.455994E3,8.844669E3,9.264665E3,9.719452E3,1.022451E4,1.0797784E4,1.1441598E4,1.2130636E4,1.30721045E4,1.2757533E4,2.5498412E4,2.6284312E4,7.230818E4,8.6658586E4,4.922176E4,4.4335E4,6.2334824E4,5.4929184E4],"split_indices":[4,4,4,4,4,4,4,4,4,4,4,4,4,5,5,4,4,4,4,4,4,4,4,4,4,4,4,0,3,0,3,4,4,4,4,4,3,4,4,4,4,4,4,4,4,4,4,4,4,4,4,4,5,5,5,0,0,2,3,4,4,4,4,4,4,4,4,4,4,2,3,4,4,4,4,4,4,4,4,4,4,4,4,4,4,4,4,4,4,4,4,4,4,4,4,4,0,0,0,0,0,0,0,0,0,0,3,0,0,2,0,0,0,0,0,0,0,0,0,0,0,0,0,0,0,0,0,0,0,0,0,0,0,0,0,0,0,0,0,0,0,0,0,0,0,0,0,0,0,0,0,0,0,0,0,0,0,0,0,0,0,0,0,0,0,0,0,0,0,0,0,0,0,0,0,0,0,0,0,0,0,0,0,0,0,0,0,0,0,0,0,0,0,0,0],"split_type":[0,0,0,0,0,0,0,0,0,0,0,0,0,0,0,0,0,0,0,0,0,0,0,0,0,0,0,0,0,0,0,0,0,0,0,0,0,0,0,0,0,0,0,0,0,0,0,0,0,0,0,0,0,0,0,0,0,0,0,0,0,0,0,0,0,0,0,0,0,0,0,0,0,0,0,0,0,0,0,0,0,0,0,0,0,0,0,0,0,0,0,0,0,0,0,0,0,0,0,0,0,0,0,0,0,0,0,0,0,0,0,0,0,0,0,0,0,0,0,0,0,0,0,0,0,0,0,0,0,0,0,0,0,0,0,0,0,0,0,0,0,0,0,0,0,0,0,0,0,0,0,0,0,0,0,0,0,0,0,0,0,0,0,0,0,0,0,0,0,0,0,0,0,0,0,0,0,0,0,0,0,0,0,0,0,0,0,0,0,0,0,0,0,0,0],"sum_hessian":[1.905731E6,1.756801E6,1.4893E5,1.272452E6,4.84349E5,1.3404E5,1.489E4,6.54726E5,6.17726E5,3.1315E5,1.71199E5,9.6845E4,3.7195E4,7.495E3,7.395E3,2.8207E5,3.72656E5,3.57542E5,2.60184E5,1.71646E5,1.41504E5,9.6703E4,7.4496E4,5.965E4,3.7195E4,2.2372E4,1.4823E4,1.74E3,5.755E3,1.119E3,6.276E3,9.6613E4,1.85457E5,1.94556E5,1.781E5,2.01561E5,1.55981E5,1.41158E5,1.19026E5,8.9256E4,8.239E4,7.4267E4,6.7237E4,5.2074E4,4.4629E4,3.739E4,3.7106E4,2.9716E4,2.9934E4,2.2393E4,1.4802E4,1.4854E4,7.518E3,7.374E3,7.449E3,3.915E3,1.84E3,1.046E3,5.23E3,2.9741E4,6.6872E4,8.9149E4,9.6308E4,9.7496E4,9.706E4,8.9263E4,8.8837E4,1.04575E5,9.6986E4,1.55968E5,1.3E1,7.4775E4,6.6383E4,6.6686E4,5.234E4,4.5474E4,4.3782E4,4.4983E4,3.7407E4,3.705E4,3.7217E4,3.722E4,3.0017E4,2.9769E4,2.2305E4,2.234E4,2.2289E4,2.2444E4,1.4946E4,2.2204E4,1.4902E4,1.4834E4,1.4882E4,1.5005E4,1.4929E4,1.4864E4,7.529E3,7.453E3,7.349E3,7.434E3,7.42E3,3.558E3,3.96E3,3.111E3,4.263E3,2.419E3,5.03E3,8.05E2,2.41E2,6.19E2,4.611E3,7.366E3,2.2375E4,2.938E4,3.7492E4,4.4286E4,4.4863E4,4.4433E4,5.1875E4,4.4901E4,5.2595E4,4.4042E4,5.3018E4,4.4085E4,4.5178E4,4.4033E4,4.4804E4,5.2363E4,5.2212E4,4.4338E4,5.2648E4,1.193E3,1.54775E5,9E0,4E0,3.6784E4,3.7991E4,3.6801E4,2.9582E4,3.7102E4,2.9584E4,3.0067E4,2.2273E4,2.223E4,2.3244E4,2.1746E4,2.2036E4,2.2512E4,2.2471E4,2.2201E4,1.5206E4,2.2232E4,1.4818E4,2.2374E4,1.4843E4,2.252E4,1.47E4,1.4971E4,1.5046E4,1.475E4,1.5019E4,7.476E3,1.4829E4,7.462E3,1.4878E4,7.54E3,1.4749E4,1.5024E4,7.42E3,7.459E3,7.487E3,1.473E4,7.474E3,7.439E3,7.463E3,7.372E3,7.462E3,7.391E3,7.491E3,7.478E3,7.527E3,7.423E3,7.506E3,7.428E3,7.436E3,4.183E3,3.346E3,3.086E3,1.944E3,1.44E2,6.61E2,2.15E2,4.04E2,4.376E3,2.35E2],"tree_param":{"num_deleted":"0","num_feature":"7","num_nodes":"195","size_leaf_vector":"1"}},{"base_weights":[5.8624744E0,-2.6611092E4,3.1375644E5,-5.5301805E4,4.873281E4,2.5148786E5,8.7277225E5,-7.692756E4,-3.180039E4,2.4354127E4,9.6293734E4,2.0223347E5,3.7920666E5,6.220026E5,1.1271119E6,-9.041334E4,-6.639562E4,-4.223516E4,-1.7085451E4,1.0243507E4,4.2173266E4,7.9171E4,1.2106112E5,1.739589E5,2.4764662E5,3.3527753E5,4.4560722E5,5.916238E5,6.3670544E5,9.064474E5,1.1945945E6,-9.974544E4,-8.462891E4,-7.2251836E4,-6.0090574E4,-4.7489133E4,-3.5511176E4,-2.2783283E4,-9.860232E3,3.5091406E3,1.821793E4,3.4038453E4,5.1221992E4,6.996642E4,8.992866E4,1.1124066E5,1.3329302E5,1.5767308E5,1.9008561E5,2.3125342E5,2.724355E5,3.1917138E5,1.8351264E4,2.0580234E4,4.7958178E5,6.1919156E5,5.7545106E5,6.207882E5,3.4107855E4,1.0443558E6,3.830295E4,1.5420395E6,1.132702E6,-1.068814E5,-9.617385E4,-8.7980234E4,-8.129472E4,-7.5033336E4,-6.898673E4,-6.287854E4,-5.680372E4,-5.0807125E4,-4.4406555E4,-3.559064E4,7.955289E5,-2.5847502E4,-1.9332666E4,-1.2869453E4,-6.46546E3,2.4953462E2,7.3415454E3,1.4782825E4,2.2370893E4,2.9977059E4,3.8163305E4,4.613151E4,5.526456E4,6.588187E4,7.543714E4,8.471596E4,9.518177E4,1.0690736E5,1.1776025E5,1.2803306E5,1.385599E5,1.5090303E5,1.6439205E5,1.8037138E5,1.9976322E5,2.2395983E5,2.4571808E5,1.3137858E4,2.8220334E5,1.5268167E4,1.6658959E4,4.7570197E5,2.4551031E4,3.0378092E4,3.355473E4,2.8073744E4,2.979136E4,6.037036E5,3.302472E4,8.6523694E5,1.1316708E6,1.6971619E6,4.8156777E4,8.5119244E5,1.1865235E6,-5.5708696E3,-5.1954355E3,-4.9292803E3,-4.689007E3,-4.492418E3,-4.3063003E3,-4.141997E3,-3.9889578E3,-3.8339302E3,-3.6714666E3,-3.510082E3,-3.3665398E3,-3.218587E3,-3.0560986E3,-2.9028992E3,-2.7663103E3,-2.6150085E3,-2.4557883E3,-2.3061365E3,-2.156118E3,-4.820114E3,-1.7372246E3,1.918939E4,5.1368996E4,-1.3610509E3,-1.1925062E3,-1.0382832E3,-8.7567035E2,-7.230761E2,-5.6414325E2,-3.908812E2,-2.321724E2,-6.5685646E1,1.1385442E2,2.794458E2,4.5549878E2,6.3891626E2,8.401691E2,1.01043134E3,1.1901024E3,1.3828109E3,1.5757915E3,1.782542E3,1.9899652E3,2.2150334E3,2.3997563E3,2.6031042E3,2.8707715E3,3.1655532E3,3.4247234E3,3.6998809E3,3.9142766E3,4.151683E3,4.4004507E3,4.667984E3,4.9392686E3,5.1363022E3,5.449704E3,5.7672886E3,6.0092305E3,6.274959E3,6.5259644E3,6.7930093E3,7.061801E3,7.386527E3,7.69929E3,8.0338203E3,8.402176E3,8.801385E3,9.234113E3,9.71456E3,1.0257606E4,1.0870618E4,1.1525048E4,1.2413926E4,1.2115931E4,1.4286297E4,1.3952778E4,2.3440506E4,2.42446E4,2.976775E4,3.1407865E4,4.770442E4,4.045851E4,4.323601E4,6.0883895E4,6.807346E4,8.886602E4,4.474822E4,4.1157094E4,5.434425E4,6.0025125E4],"categories":[],"categories_nodes":[],"categories_segments":[],"categories_sizes":[],"default_left":[0,0,0,0,0,0,0,0,0,0,0,0,0,0,0,0,0,0,0,0,0,0,0,0,0,0,0,0,0,0,0,0,0,0,0,0,0,0,0,0,0,0,0,0,0,0,0,0,0,0,0,0,0,0,0,0,0,0,0,0,0,0,0,0,0,0,0,0,0,0,0,0,0,0,0,0,0,0,0,0,0,0,0,0,0,0,0,0,0,0,0,0,0,0,0,0,0,0,0,0,0,0,0,0,0,0,0,0,0,0,0,0,0,0,0,0,0,0,0,0,0,0,0,0,0,0,0,0,0,0,0,0,0,0,0,0,0,0,0,0,0,0,0,0,0,0,0,0,0,0,0,0,0,0,0,0,0,0,0,0,0,0,0,0,0,0,0,0,0,0,0,0,0,0,0,0,0,0,0,0,0,0,0,0,0,0,0,0,0,0,0,0,0,0,0,0,0,0,0,0,0,0,0,0,0,0,0,0,0,0,0],"id":5,"left_children":[1,3,5,7,9,11,13,15,17,19,21,23,25,27,29,31,33,35,37,39,41,43,45,47,49,51,53,55,57,59,61,63,65,67,69,71,73,75,77,79,81,83,85,87,89,91,93,95,97,99,101,103,-1,-1,105,107,109,111,-1,113,-1,115,117,119,121,123,125,127,129,131,133,135,137,139,141,143,145,147,149,151,153,155,157,159,161,163,165,167,169,171,173,175,177,179,181,183,185,187,189,191,193,-1,195,-1,-1,197,-1,-1,-1,-1,-1,199,-1,201,203,205,-1,207,209,-1,-1,-1,-1,-1,-1,-1,-1,-1,-1,-1,-1,-1,-1,-1,-1,-1,-1,-1,-1,-1,-1,-1,-1,-1,-1,-1,-1,-1,-1,-1,-1,-1,-1,-1,-1,-1,-1,-1,-1,-1,-1,-1,-1,-1,-1,-1,-1,-1,-1,-1,-1,-1,-1,-1,-1,-1,-1,-1,-1,-1,-1,-1,-1,-1,-1,-1,-1,-1,-1,-1,-1,-1,-1,-1,-1,-1,-1,-1,-1,-1,-1,-1,-1,-1,-1,-1,-1,-1,-1,-1,-1],"loss_changes":[1.5910503E16,3.7963578E15,5.1859207E15,6.4641566E14,5.615651E14,8.432374E14,9.516724E14,9.4071595E13,9.358801E13,8.0511125E13,6.959471E13,1.24186295E14,1.08677705E14,2.9825864E12,1.0928866E14,1.5670457E13,1.372846E13,1.2596871E13,1.041085E13,9.596496E12,1.041444E13,9.602876E12,8.0437355E12,1.5630862E13,1.5021648E13,1.1366363E13,1.6959752E13,7.436333E11,3.2335735E12,3.2887773E13,1.2024674E14,2.8222633E12,1.9964887E12,1.7459042E12,1.6377247E12,2.0452768E12,1.0359142E13,1.4944892E12,1.1389884E12,1.2102731E12,1.166847E12,1.2472518E12,1.3759834E12,1.1637348E12,1.2170864E12,1.0388452E12,8.097691E11,1.3249974E12,2.780186E12,2.303042E12,1.322313E12,2.7816624E12,0E0,0E0,9.583146E10,1.3492237E11,1.1227313E11,2.1485574E12,0E0,1.2705654E13,0E0,7.5145285E13,7.200405E13,4.8818343E11,4.1842377E11,3.019899E11,2.0401095E11,2.6910654E11,1.737784E11,2.5018184E11,1.4913267E11,2.4088727E11,2.2676085E11,8.045212E12,1.03764145E12,2.0479109E11,1.7301714E11,1.4913896E11,1.2905192E11,1.6594574E11,1.3796246E11,1.8115828E11,1.1412701E11,1.3323836E11,1.5052938E11,9.906527E10,2.5415805E11,1.968303E11,8.58574E10,1.1717208E11,1.3705308E11,1.8396217E11,7.308155E10,7.786306E10,8.855015E10,1.21936806E11,1.7491925E11,2.4759815E11,4.0245186E11,5.867999E11,4.966056E9,0E0,1.6777216E9,0E0,0E0,1.2589623E11,0E0,0E0,0E0,0E0,0E0,1.643496E11,0E0,6.7763175E11,1.2378498E13,1.568965E13,0E0,2.1736561E11,4.3266427E12,0E0,0E0,0E0,0E0,0E0,0E0,0E0,0E0,0E0,0E0,0E0,0E0,0E0,0E0,0E0,0E0,0E0,0E0,0E0,0E0,0E0,0E0,0E0,0E0,0E0,0E0,0E0,0E0,0E0,0E0,0E0,0E0,0E0,0E0,0E0,0E0,0E0,0E0,0E0,0E0,0E0,0E0,0E0,0E0,0E0,0E0,0E0,0E0,0E0,0E0,0E0,0E0,0E0,0E0,0E0,0E0,0E0,0E0,0E0,0E0,0E0,0E0,0E0,0E0,0E0,0E0,0E0,0E0,0E0,0E0,0E0,0E0,0E0,0E0,0E0,0E0,0E0,0E0,0E0,0E0,0E0,0E0,0E0,0E0,0E0,0E0,0E0,0E0,0E0,0E0,0E0,0E0],"parents":[2147483647,0,0,1,1,2,2,3,3,4,4,5,5,6,6,7,7,8,8,9,9,10,10,11,11,12,12,13,13,14,14,15,15,16,16,17,17,18,18,19,19,20,20,21,21,22,22,23,23,24,24,25,25,26,26,27,27,28,28,29,29,30,30,31,31,32,32,33,33,34,34,35,35,36,36,37,37,38,38,39,39,40,40,41,41,42,42,43,43,44,44,45,45,46,46,47,47,48,48,49,49,50,50,51,51,54,54,55,55,56,56,57,57,59,59,61,61,62,62,63,63,64,64,65,65,66,66,67,67,68,68,69,69,70,70,71,71,72,72,73,73,74,74,75,75,76,76,77,77,78,78,79,79,80,80,81,81,82,82,83,83,84,84,85,85,86,86,87,87,88,88,89,89,90,90,91,91,92,92,93,93,94,94,95,95,96,96,97,97,98,98,99,99,100,100,102,102,105,105,111,111,113,113,114,114,115,115,117,117,118,118],"right_children":[2,4,6,8,10,12,14,16,18,20,22,24,26,28,30,32,34,36,38,40,42,44,46,48,50,52,54,56,58,60,62,64,66,68,70,72,74,76,78,80,82,84,86,88,90,92,94,96,98,100,102,104,-1,-1,106,108,110,112,-1,114,-1,116,118,120,122,124,126,128,130,132,134,136,138,140,142,144,146,148,150,152,154,156,158,160,162,164,166,168,170,172,174,176,178,180,182,184,186,188,190,192,194,-1,196,-1,-1,198,-1,-1,-1,-1,-1,200,-1,202,204,206,-1,208,210,-1,-1,-1,-1,-1,-1,-1,-1,-1,-1,-1,-1,-1,-1,-1,-1,-1,-1,-1,-1,-1,-1,-1,-1,-1,-1,-1,-1,-1,-1,-1,-1,-1,-1,-1,-1,-1,-1,-1,-1,-1,-1,-1,-1,-1,-1,-1,-1,-1,-1,-1,-1,-1,-1,-1,-1,-1,-1,-1,-1,-1,-1,-1,-1,-1,-1,-1,-1,-1,-1,-1,-1,-1,-1,-1,-1,-1,-1,-1,-1,-1,-1,-1,-1,-1,-1,-1,-1,-1,-1,-1,-1],"split_conditions":[1.1461833E0,-2.6085151E-2,4.1865816E0,-4.2872584E-1,4.8167244E-1,2.3233695E0,5.921932E0,-6.211328E-1,-2.3140118E-1,2.0627849E-1,7.982525E-1,1.6748413E0,3.071482E0,4.403478E0,6.391204E0,-7.2870857E-1,-5.2462196E-1,-3.2176483E-1,-1.2751372E-1,8.579364E-2,3.359841E-1,6.328932E-1,9.722179E-1,1.363179E0,2.0153954E0,2.7671964E0,3.493179E0,-2.3363777E-1,5.7732196E0,-2.3363777E-1,-2.3055072E-1,-8.0493367E-1,-6.6969556E-1,-5.694964E-1,-4.729856E-1,-3.777042E-1,2.5590155E0,-1.7853537E-1,-7.649208E-2,3.0468963E-2,1.4849494E-1,2.689798E-1,3.9622656E-1,5.640447E-1,7.1280664E-1,8.984517E-1,1.0564344E0,1.2476119E0,1.5021054E0,1.8850751E0,2.1567807E0,2.5262265E0,1.8351264E4,2.0580234E4,4.403478E0,5.7732196E0,5.7732196E0,6.391204E0,3.4107855E4,5.7003284E0,3.830295E4,-2.2445093E-1,5.7732196E0,-8.491934E-1,-7.6067394E-1,-6.973579E-1,-6.451068E-1,-5.953146E-1,-5.442929E-1,-4.9695963E-1,-4.4901156E-1,-4.0167823E-1,-3.543449E-1,-5.04159E-1,4.403478E0,-2.0066524E-1,-1.5087304E-1,-1.0292498E-1,-4.821502E-2,4.6507805E-3,5.7516582E-2,1.1591485E-1,1.7062481E-1,2.3086724E-1,2.954127E-1,3.6549062E-1,4.2880663E-1,5.2224386E-1,6.089192E-1,6.8391484E-1,7.675166E-1,8.296032E-1,9.3410534E-1,1.013404E0,1.0994647E0,1.1941314E0,1.3029366E0,1.4295685E0,1.5814041E0,1.7744257E0,2.5461525E-1,1.3137858E4,-2.8009537E-1,1.5268167E4,1.6658959E4,4.4139495E0,2.4551031E4,3.0378092E4,3.355473E4,2.8073744E4,2.979136E4,5.7003284E0,3.302472E4,-2.3055072E-1,5.7732196E0,-1.055485E0,4.8156777E4,-2.2445093E-1,-1.2878648E0,-5.5708696E3,-5.1954355E3,-4.9292803E3,-4.689007E3,-4.492418E3,-4.3063003E3,-4.141997E3,-3.9889578E3,-3.8339302E3,-3.6714666E3,-3.510082E3,-3.3665398E3,-3.218587E3,-3.0560986E3,-2.9028992E3,-2.7663103E3,-2.6150085E3,-2.4557883E3,-2.3061365E3,-2.156118E3,-4.820114E3,-1.7372246E3,1.918939E4,5.1368996E4,-1.3610509E3,-1.1925062E3,-1.0382832E3,-8.7567035E2,-7.230761E2,-5.6414325E2,-3.908812E2,-2.321724E2,-6.5685646E1,1.1385442E2,2.794458E2,4.5549878E2,6.3891626E2,8.401691E2,1.01043134E3,1.1901024E3,1.3828109E3,1.5757915E3,1.782542E3,1.9899652E3,2.2150334E3,2.3997563E3,2.6031042E3,2.8707715E3,3.1655532E3,3.4247234E3,3.6998809E3,3.9142766E3,4.151683E3,4.4004507E3,4.667984E3,4.9392686E3,5.1363022E3,5.449704E3,5.7672886E3,6.0092305E3,6.274959E3,6.5259644E3,6.7930093E3,7.061801E3,7.386527E3,7.69929E3,8.0338203E3,8.402176E3,8.801385E3,9.234113E3,9.71456E3,1.0257606E4,1.0870618E4,1.1525048E4,1.2413926E4,1.2115931E4,1.4286297E4,1.3952778E4,2.3440506E4,2.42446E4,2.976775E4,3.1407865E4,4.770442E4,4.045851E4,4.323601E4,6.0883895E4,6.807346E4,8.886602E4,4.474822E4,4.1157094E4,5.434425E4,6.0025125E4],"split_indices":[4,4,4,4,4,4,4,4,4,4,4,4,4,6,6,4,4,4,4,4,4,4,4,4,4,4,4,6,3,6,3,4,4,4,4,4,6,4,4,4,4,4,4,4,4,4,4,4,4,4,4,4,0,0,6,3,3,6,0,2,0,2,3,4,4,4,4,4,4,4,4,4,4,6,6,4,4,4,4,4,4,4,4,4,4,4,4,4,4,4,4,4,4,4,4,4,4,4,4,4,0,0,0,0,0,3,0,0,0,0,0,2,0,3,3,0,0,2,0,0,0,0,0,0,0,0,0,0,0,0,0,0,0,0,0,0,0,0,0,0,0,0,0,0,0,0,0,0,0,0,0,0,0,0,0,0,0,0,0,0,0,0,0,0,0,0,0,0,0,0,0,0,0,0,0,0,0,0,0,0,0,0,0,0,0,0,0,0,0,0,0,0,0,0,0,0,0,0,0,0,0,0,0,0,0,0,0,0,0,0,0],"split_type":[0,0,0,0,0,0,0,0,0,0,0,0,0,0,0,0,0,0,0,0,0,0,0,0,0,0,0,0,0,0,0,0,0,0,0,0,0,0,0,0,0,0,0,0,0,0,0,0,0,0,0,0,0,0,0,0,0,0,0,0,0,0,0,0,0,0,0,0,0,0,0,0,0,0,0,0,0,0,0,0,0,0,0,0,0,0,0,0,0,0,0,0,0,0,0,0,0,0,0,0,0,0,0,0,0,0,0,0,0,0,0,0,0,0,0,0,0,0,0,0,0,0,0,0,0,0,0,0,0,0,0,0,0,0,0,0,0,0,0,0,0,0,0,0,0,0,0,0,0,0,0,0,0,0,0,0,0,0,0,0,0,0,0,0,0,0,0,0,0,0,0,0,0,0,0,0,0,0,0,0,0,0,0,0,0,0,0,0,0,0,0,0,0,0,0,0,0,0,0,0,0,0,0,0,0,0,0,0,0,0,0],"sum_hessian":[1.9052E6,1.756213E6,1.48987E5,1.271884E6,4.84329E5,1.34056E5,1.4931E4,6.62373E5,6.09511E5,3.20202E5,1.64127E5,9.6748E4,3.7308E4,7.52E3,7.411E3,2.90452E5,3.71921E5,3.5662E5,2.52891E5,1.78697E5,1.41505E5,9.7042E4,6.7085E4,5.9628E4,3.712E4,2.2457E4,1.4851E4,2.466E3,5.054E3,1.739E3,5.672E3,1.11137E5,1.79315E5,1.92818E5,1.79103E5,2.0019E5,1.5643E5,1.41389E5,1.11502E5,9.6882E4,8.1815E4,7.4518E4,6.6987E4,5.23E4,4.4742E4,3.7216E4,2.9869E4,2.9673E4,2.9955E4,2.235E4,1.477E4,1.4906E4,7.551E3,7.429E3,7.422E3,8.98E2,1.568E3,3.754E3,1.3E3,8.74E2,8.65E2,8.54E2,4.818E3,3.7061E4,7.4076E4,8.9415E4,8.99E4,1.04108E5,8.871E4,9.6896E4,8.2207E4,9.6406E4,1.03784E5,1.56416E5,1.4E1,7.4884E4,6.6505E4,5.9106E4,5.2396E4,5.2354E4,4.4528E4,4.478E4,3.7035E4,3.7552E4,3.6966E4,2.9656E4,3.7331E4,2.9951E4,2.2349E4,2.2466E4,2.2276E4,2.2367E4,1.4849E4,1.4957E4,1.4912E4,1.4792E4,1.4881E4,1.4959E4,1.4996E4,1.4869E4,7.481E3,7.433E3,7.337E3,7.518E3,7.388E3,5.574E3,1.848E3,7.44E2,1.54E2,9.47E2,6.21E2,2.636E3,1.118E3,2.9E2,5.84E2,6.72E2,1.82E2,7.76E2,4.042E3,1.4658E4,2.2403E4,3.6879E4,3.7197E4,4.4517E4,4.4898E4,4.4488E4,4.5412E4,5.137E4,5.2738E4,5.1145E4,3.7565E4,5.2355E4,4.4541E4,4.4442E4,3.7765E4,5.1189E4,4.5217E4,4.4406E4,5.9378E4,2.145E3,1.54271E5,6E0,8E0,4.4364E4,3.052E4,3.7196E4,2.9309E4,2.9498E4,2.9608E4,3.0074E4,2.2322E4,2.9562E4,2.2792E4,2.2366E4,2.2162E4,2.2483E4,2.2297E4,1.4756E4,2.2279E4,1.4979E4,2.2573E4,1.4587E4,2.2379E4,1.4972E4,1.4684E4,1.5009E4,2.2322E4,1.5109E4,1.4842E4,1.4864E4,7.485E3,1.4887E4,7.579E3,1.4813E4,7.463E3,7.463E3,1.4904E4,7.464E3,7.385E3,7.433E3,7.524E3,7.449E3,7.463E3,7.314E3,7.478E3,7.398E3,7.483E3,7.472E3,7.487E3,7.459E3,7.537E3,7.448E3,7.421E3,4.226E3,3.255E3,3.42E3,3.917E3,3.215E3,2.359E3,1.984E3,6.52E2,1.06E2,1.84E2,1.45E2,4.39E2,1.33E2,5.39E2,2.91E2,4.85E2,5.07E2,3.535E3],"tree_param":{"num_deleted":"0","num_feature":"7","num_nodes":"211","size_leaf_vector":"1"}},{"base_weights":[-2.4335447E1,-2.5673361E4,2.8702575E5,-5.207902E4,4.3313793E4,2.3192544E5,8.114585E5,-7.3038484E4,-2.9561254E4,2.0225113E4,8.54681E4,1.8085495E5,3.42484E5,6.054827E5,1.04412406E6,-8.573656E4,-6.2971438E4,-3.0620844E4,1.6280956E5,7.916551E3,3.6642406E4,6.873545E4,1.0723598E5,1.5662614E5,2.1957495E5,3.0326112E5,4.2074906E5,5.282351E5,7.362929E5,6.6457956E5,1.1553874E6,-9.458065E4,-8.018604E4,-6.834845E4,-5.687542E4,-3.9791082E4,-1.7154082E4,1.1892817E5,2.5634731E5,1.6851764E3,1.5295503E4,2.984948E4,4.5127367E4,6.0745773E4,7.803238E4,9.643922E4,1.17996E5,1.4205761E5,1.7122666E5,1.9131975E5,2.3435355E5,2.6061045E5,3.249808E5,3.4181566E5,4.4378072E5,4.6304303E5,5.8626125E5,9.75055E5,6.568775E5,5.8370806E5,6.845915E5,1.4815484E6,1.0922506E6,-1.0049072E5,-9.065474E4,-8.33741E4,-7.702933E4,-7.12516E4,-6.5429305E4,-5.9546934E4,-5.4000375E4,-4.0160965E4,6.8645266E4,-2.2477584E4,-1.0744101E4,8.836014E4,1.5378808E5,2.520142E5,5.6271613E4,-2.6141637E4,2.0775366E3,-8.186034E3,1.5912588E4,-7.4660293E3,3.0565715E4,2.3993894E3,4.5707883E4,1.0091675E4,6.1340547E4,1.3028824E4,7.862391E4,1.1291541E4,9.712691E4,1.04124016E5,1.2344371E5,1.21117586E5,1.4834684E5,1.5050752E5,1.7985698E5,1.6906166E5,2.009176E5,2.1929705E5,2.5365006E5,2.322198E5,2.7918912E5,2.9639056E5,3.4901372E5,2.8306588E5,3.605977E5,4.0867116E5,4.754474E5,6.1158356E5,3.5842588E5,5.474969E5,5.9705744E5,3.416932E4,1.1252472E6,2.9188748E4,6.7432675E5,3.296518E4,5.3889075E5,3.355213E4,3.5882848E4,1.6240072E6,9.1300056E5,8.041498E5,1.141527E6,-5.2844805E3,-4.8965615E3,-4.642784E3,-4.444166E3,-4.2573726E3,-4.0809353E3,-3.9242214E3,-3.779052E3,-3.6318364E3,-3.483761E3,-3.341679E3,-3.1930217E3,-3.0497327E3,-2.9078816E3,-2.7708525E3,-2.6402366E3,-2.265703E3,-1.7089583E3,3.2811316E3,4.882046E4,-1.2662441E3,-9.802255E2,-6.7534485E2,-3.7978687E2,3.5966711E3,6.825004E3,7.2708345E3,1.4438869E4,1.1889645E4,2.0148107E4,-2.6324731E3,-9.10375E2,-5.0283802E1,2.820835E2,-1.4229417E3,-5.858893E1,6.384052E2,9.8091376E2,-1.7521156E3,8.143398E1,1.3362666E3,1.7198694E3,-1.1570404E3,5.419047E2,2.1020093E3,2.4680664E3,-1.1907806E3,1.02599E3,2.7960798E3,3.2313276E3,-7.3899347E2,1.260528E3,3.5773735E3,4.137318E3,-2.320123E3,1.0190485E3,4.369532E3,5.0673433E3,5.344732E2,5.268229E3,5.922707E3,6.524747E3,-5.3242975E2,6.1421997E3,7.107927E3,7.7067695E3,8.342775E3,7.1572E3,8.54483E3,9.407841E3,9.74537E3,7.770157E3,1.1092597E4,9.69187E3,1.0637933E4,1.1525946E4,1.2254913E4,1.307063E4,1.0861475E4,1.3193796E4,1.5861565E4,1.3398086E4,1.4257278E4,1.5317128E4,1.664675E4,1.8171105E4,1.8093898E4,1.0245052E4,2.071571E4,1.7528672E4,1.9160336E4,2.0788938E4,2.2111092E4,2.4262146E4,4.539079E3,3.1495348E4,1.0460528E4,2.1429033E4,2.6803703E4,3.10561E4,2.9642578E4,3.2556068E4,3.849292E4,6.1643383E4,3.2702354E4,3.437062E4,3.048553E4,2.5622658E4,6.5450906E4,8.3025375E4,4.713573E4,3.5650355E4,4.4515098E4,3.7898324E4,5.7511824E4,4.964556E4],"categories":[],"categories_nodes":[],"categories_segments":[],"categories_sizes":[],"default_left":[0,0,0,0,0,0,0,0,0,0,0,0,0,0,0,0,0,0,0,0,0,0,0,0,0,0,0,0,0,0,0,0,0,0,0,0,0,0,0,0,0,0,0,0,0,0,0,0,0,0,0,0,0,0,0,0,0,0,0,0,0,0,0,0,0,0,0,0,0,0,0,0,0,0,0,0,0,0,0,0,0,0,0,0,0,0,0,0,0,0,0,0,0,0,0,0,0,0,0,0,0,0,0,0,0,0,0,0,0,0,0,0,0,0,0,0,0,0,0,0,0,0,0,0,0,0,0,0,0,0,0,0,0,0,0,0,0,0,0,0,0,0,0,0,0,0,0,0,0,0,0,0,0,0,0,0,0,0,0,0,0,0,0,0,0,0,0,0,0,0,0,0,0,0,0,0,0,0,0,0,0,0,0,0,0,0,0,0,0,0,0,0,0,0,0,0,0,0,0,0,0,0,0,0,0,0,0,0,0,0,0,0,0,0,0,0,0,0,0,0,0,0,0,0,0,0,0,0,0,0,0,0,0,0,0,0,0,0,0,0,0,0,0],"id":6,"left_children":[1,3,5,7,9,11,13,15,17,19,21,23,25,27,29,31,33,35,37,39,41,43,45,47,49,51,53,55,57,59,61,63,65,67,69,71,73,75,77,79,81,83,85,87,89,91,93,95,97,99,101,103,105,107,109,111,113,115,117,119,121,123,125,127,129,131,133,135,137,139,141,143,145,147,149,151,153,155,-1,157,159,161,163,165,167,169,171,173,175,177,179,181,183,185,187,189,191,193,195,197,199,201,203,205,207,209,211,213,215,217,219,221,223,225,227,-1,229,-1,231,-1,233,-1,-1,235,237,239,241,-1,-1,-1,-1,-1,-1,-1,-1,-1,-1,-1,-1,-1,-1,-1,-1,-1,-1,-1,-1,-1,-1,-1,-1,-1,-1,-1,-1,-1,-1,-1,-1,-1,-1,-1,-1,-1,-1,-1,-1,-1,-1,-1,-1,-1,-1,-1,-1,-1,-1,-1,-1,-1,-1,-1,-1,-1,-1,-1,-1,-1,-1,-1,-1,-1,-1,-1,-1,-1,-1,-1,-1,-1,-1,-1,-1,-1,-1,-1,-1,-1,-1,-1,-1,-1,-1,-1,-1,-1,-1,-1,-1,-1,-1,-1,-1,-1,-1,-1,-1,-1,-1,-1,-1,-1,-1,-1,-1,-1,-1,-1,-1,-1,-1,-1,-1],"loss_changes":[1.4030342E16,3.1866644E15,4.51658E15,5.9707266E14,4.7129428E14,7.985987E14,7.11558E14,8.375267E13,1.243189E14,6.322217E13,6.240896E13,9.073709E13,1.3707012E14,7.928724E13,2.9386703E14,1.4215805E13,1.1975845E13,7.490282E13,1.3682877E13,8.2218855E12,7.7255053E12,7.1922247E12,8.640602E12,1.2636062E13,1.5505235E13,2.7498528E13,2.6968368E13,1.8495203E13,5.4821634E13,2.1638582E12,1.0945885E14,2.5830202E12,1.7849616E12,1.641013E12,1.312381E12,1.4475181E13,8.3842543E12,2.4117122E12,3.730762E12,1.058513E12,1.1863903E12,1.9901889E12,1.478316E12,1.5694079E12,1.7207552E12,2.1759043E12,2.8055867E12,3.9062728E12,5.2875745E12,2.6992527E12,7.046699E12,5.237243E12,1.344969E13,3.6208923E12,1.2641699E13,3.6159665E13,7.700071E11,3.1122071E13,2.4100806E12,7.3225E11,8.4758495E10,6.914468E13,6.3292786E13,5.829076E11,2.5347018E11,2.68771E11,1.8263677E11,2.075006E11,2.0907767E11,1.7505347E11,1.3685175E11,1.1083163E13,3.3026123E12,1.09756967E12,9.69592E11,9.5098084E11,1.1581207E12,2.1839447E12,0E0,2.8254817E11,1.05053035E12,2.9815708E11,9.292795E11,3.5192704E11,1.07408156E12,1.7267175E11,7.859035E11,2.1476388E11,9.135865E11,1.3756967E11,1.2885741E12,1.5774302E11,1.5064598E12,1.2186047E12,9.265385E11,1.5682167E12,7.987968E11,1.02894666E12,1.5278675E12,1.3326898E12,1.2811753E12,9.590528E11,6.467952E11,1.8322733E12,2.5079925E12,9.214718E11,2.3604872E12,4.989649E12,1.229468E12,8.32821E11,1.7589233E12,9.161165E12,1.4314539E13,1.5733673E11,7.7644956E10,0E0,1.7371197E13,0E0,1.952868E10,0E0,7.5119985E10,0E0,0E0,5.8282706E12,3.796684E11,1.967095E12,3.8541963E12,0E0,0E0,0E0,0E0,0E0,0E0,0E0,0E0,0E0,0E0,0E0,0E0,0E0,0E0,0E0,0E0,0E0,0E0,0E0,0E0,0E0,0E0,0E0,0E0,0E0,0E0,0E0,0E0,0E0,0E0,0E0,0E0,0E0,0E0,0E0,0E0,0E0,0E0,0E0,0E0,0E0,0E0,0E0,0E0,0E0,0E0,0E0,0E0,0E0,0E0,0E0,0E0,0E0,0E0,0E0,0E0,0E0,0E0,0E0,0E0,0E0,0E0,0E0,0E0,0E0,0E0,0E0,0E0,0E0,0E0,0E0,0E0,0E0,0E0,0E0,0E0,0E0,0E0,0E0,0E0,0E0,0E0,0E0,0E0,0E0,0E0,0E0,0E0,0E0,0E0,0E0,0E0,0E0,0E0,0E0,0E0,0E0,0E0,0E0,0E0,0E0,0E0,0E0,0E0,0E0,0E0,0E0,0E0,0E0,0E0,0E0,0E0,0E0,0E0,0E0,0E0],"parents":[2147483647,0,0,1,1,2,2,3,3,4,4,5,5,6,6,7,7,8,8,9,9,10,10,11,11,12,12,13,13,14,14,15,15,16,16,17,17,18,18,19,19,20,20,21,21,22,22,23,23,24,24,25,25,26,26,27,27,28,28,29,29,30,30,31,31,32,32,33,33,34,34,35,35,36,36,37,37,38,38,39,39,40,40,41,41,42,42,43,43,44,44,45,45,46,46,47,47,48,48,49,49,50,50,51,51,52,52,53,53,54,54,55,55,56,56,57,57,58,58,59,59,60,60,61,61,62,62,63,63,64,64,65,65,66,66,67,67,68,68,69,69,70,70,71,71,72,72,73,73,74,74,75,75,76,76,77,77,79,79,80,80,81,81,82,82,83,83,84,84,85,85,86,86,87,87,88,88,89,89,90,90,91,91,92,92,93,93,94,94,95,95,96,96,97,97,98,98,99,99,100,100,101,101,102,102,103,103,104,104,105,105,106,106,107,107,108,108,109,109,110,110,111,111,112,112,113,113,114,114,116,116,118,118,120,120,123,123,124,124,125,125,126,126],"right_children":[2,4,6,8,10,12,14,16,18,20,22,24,26,28,30,32,34,36,38,40,42,44,46,48,50,52,54,56,58,60,62,64,66,68,70,72,74,76,78,80,82,84,86,88,90,92,94,96,98,100,102,104,106,108,110,112,114,116,118,120,122,124,126,128,130,132,134,136,138,140,142,144,146,148,150,152,154,156,-1,158,160,162,164,166,168,170,172,174,176,178,180,182,184,186,188,190,192,194,196,198,200,202,204,206,208,210,212,214,216,218,220,222,224,226,228,-1,230,-1,232,-1,234,-1,-1,236,238,240,242,-1,-1,-1,-1,-1,-1,-1,-1,-1,-1,-1,-1,-1,-1,-1,-1,-1,-1,-1,-1,-1,-1,-1,-1,-1,-1,-1,-1,-1,-1,-1,-1,-1,-1,-1,-1,-1,-1,-1,-1,-1,-1,-1,-1,-1,-1,-1,-1,-1,-1,-1,-1,-1,-1,-1,-1,-1,-1,-1,-1,-1,-1,-1,-1,-1,-1,-1,-1,-1,-1,-1,-1,-1,-1,-1,-1,-1,-1,-1,-1,-1,-1,-1,-1,-1,-1,-1,-1,-1,-1,-1,-1,-1,-1,-1,-1,-1,-1,-1,-1,-1,-1,-1,-1,-1,-1,-1,-1,-1,-1,-1,-1,-1,-1,-1,-1],"split_conditions":[1.0669541E0,-4.837939E-2,4.279661E0,-4.243345E-1,4.2213413E-1,2.1549454E0,6.391204E0,-6.0376763E-1,4.264953E-1,1.737759E-1,7.120753E-1,1.5653794E0,3.0709088E0,5.7732196E0,6.0449414E0,-7.0402235E-1,-5.114877E-1,-2.3977472E-1,1.5372862E0,5.928048E-2,2.97955E-1,5.611236E-1,8.6701435E-1,1.2703116E0,1.7170162E0,2.3563838E0,2.7590578E0,3.782439E0,-2.3363777E-1,3.782439E0,-2.3055072E-1,-7.6554227E-1,-6.4933795E-1,-5.581973E-1,-4.6648705E-1,5.1585823E-1,-1.4521632E-1,8.301514E-1,5.7732196E0,-4.4072688E-1,-2.9340714E-1,-2.6001468E-1,-2.3251499E-1,-2.3546138E-1,-2.3251499E-1,-2.3251499E-1,7.957768E-1,9.087219E-1,1.2554144E0,1.3235183E0,1.868422E0,1.9418525E0,2.5234954E0,2.109318E0,3.5100927E0,-2.3055072E-1,4.4139495E0,6.0449414E0,4.403478E0,2.3563838E0,5.7732196E0,-2.2445093E-1,5.7732196E0,-8.156696E-1,-7.33643E-1,-6.749712E-1,-6.259832E-1,-5.792736E-1,-5.342729E-1,-4.8984182E-1,-4.4711965E-1,-3.2521906E-1,4.403478E0,-1.942044E-1,-9.622823E-2,1.132631E0,3.4556782E0,4.403478E0,5.6271613E4,-6.6072434E-1,5.7353596E-3,-1.0091451E-1,1.1909152E-1,-5.953609E-2,2.3301731E-1,4.195816E-2,3.566268E-1,1.1066196E-1,4.6774483E-1,2.3674904E-1,6.11136E-1,-5.723325E-1,6.690818E-1,-2.3251499E-1,9.798009E-1,-2.3251499E-1,1.1615125E0,-2.3055072E-1,1.4018959E0,-2.3363777E-1,-2.3055072E-1,1.7550659E0,2.0022848E0,1.7170162E0,-2.3055072E-1,2.322986E0,2.7633092E0,-2.3055072E-1,-2.2445093E-1,3.342444E0,3.782439E0,-2.3251499E-1,1.9340672E0,6.0449414E0,6.0449414E0,3.416932E4,-2.2445093E-1,2.9188748E4,5.7003284E0,3.296518E4,3.353576E0,3.355213E4,3.5882848E4,-1.2424164E0,2.1634493E0,-2.2445093E-1,2.2665973E0,-5.2844805E3,-4.8965615E3,-4.642784E3,-4.444166E3,-4.2573726E3,-4.0809353E3,-3.9242214E3,-3.779052E3,-3.6318364E3,-3.483761E3,-3.341679E3,-3.1930217E3,-3.0497327E3,-2.9078816E3,-2.7708525E3,-2.6402366E3,-2.265703E3,-1.7089583E3,3.2811316E3,4.882046E4,-1.2662441E3,-9.802255E2,-6.7534485E2,-3.7978687E2,3.5966711E3,6.825004E3,7.2708345E3,1.4438869E4,1.1889645E4,2.0148107E4,-2.6324731E3,-9.10375E2,-5.0283802E1,2.820835E2,-1.4229417E3,-5.858893E1,6.384052E2,9.8091376E2,-1.7521156E3,8.143398E1,1.3362666E3,1.7198694E3,-1.1570404E3,5.419047E2,2.1020093E3,2.4680664E3,-1.1907806E3,1.02599E3,2.7960798E3,3.2313276E3,-7.3899347E2,1.260528E3,3.5773735E3,4.137318E3,-2.320123E3,1.0190485E3,4.369532E3,5.0673433E3,5.344732E2,5.268229E3,5.922707E3,6.524747E3,-5.3242975E2,6.1421997E3,7.107927E3,7.7067695E3,8.342775E3,7.1572E3,8.54483E3,9.407841E3,9.74537E3,7.770157E3,1.1092597E4,9.69187E3,1.0637933E4,1.1525946E4,1.2254913E4,1.307063E4,1.0861475E4,1.3193796E4,1.5861565E4,1.3398086E4,1.4257278E4,1.5317128E4,1.664675E4,1.8171105E4,1.8093898E4,1.0245052E4,2.071571E4,1.7528672E4,1.9160336E4,2.0788938E4,2.2111092E4,2.4262146E4,4.539079E3,3.1495348E4,1.0460528E4,2.1429033E4,2.6803703E4,3.10561E4,2.9642578E4,3.2556068E4,3.849292E4,6.1643383E4,3.2702354E4,3.437062E4,3.048553E4,2.5622658E4,6.5450906E4,8.3025375E4,4.713573E4,3.5650355E4,4.4515098E4,3.7898324E4,5.7511824E4,4.964556E4],"split_indices":[5,5,5,5,5,5,6,5,3,5,5,5,5,3,5,5,5,5,3,5,5,5,5,5,3,3,3,3,6,3,3,5,5,5,5,6,5,3,3,3,3,3,3,3,3,3,3,3,3,6,5,6,5,6,5,3,3,5,6,3,3,2,3,5,5,5,5,5,5,5,5,5,6,5,5,6,6,6,0,3,5,6,5,6,5,6,5,6,3,6,3,3,3,3,5,3,5,3,5,6,3,5,5,3,3,5,5,3,2,3,3,3,3,5,5,0,2,0,2,0,2,0,0,0,0,2,0,0,0,0,0,0,0,0,0,0,0,0,0,0,0,0,0,0,0,0,0,0,0,0,0,0,0,0,0,0,0,0,0,0,0,0,0,0,0,0,0,0,0,0,0,0,0,0,0,0,0,0,0,0,0,0,0,0,0,0,0,0,0,0,0,0,0,0,0,0,0,0,0,0,0,0,0,0,0,0,0,0,0,0,0,0,0,0,0,0,0,0,0,0,0,0,0,0,0,0,0,0,0,0,0,0,0,0,0,0,0,0,0,0,0,0,0],"split_type":[0,0,0,0,0,0,0,0,0,0,0,0,0,0,0,0,0,0,0,0,0,0,0,0,0,0,0,0,0,0,0,0,0,0,0,0,0,0,0,0,0,0,0,0,0,0,0,0,0,0,0,0,0,0,0,0,0,0,0,0,0,0,0,0,0,0,0,0,0,0,0,0,0,0,0,0,0,0,0,0,0,0,0,0,0,0,0,0,0,0,0,0,0,0,0,0,0,0,0,0,0,0,0,0,0,0,0,0,0,0,0,0,0,0,0,0,0,0,0,0,0,0,0,0,0,0,0,0,0,0,0,0,0,0,0,0,0,0,0,0,0,0,0,0,0,0,0,0,0,0,0,0,0,0,0,0,0,0,0,0,0,0,0,0,0,0,0,0,0,0,0,0,0,0,0,0,0,0,0,0,0,0,0,0,0,0,0,0,0,0,0,0,0,0,0,0,0,0,0,0,0,0,0,0,0,0,0,0,0,0,0,0,0,0,0,0,0,0,0,0,0,0,0,0,0,0,0,0,0,0,0,0,0,0,0,0,0,0,0,0,0,0,0],"sum_hessian":[1.905633E6,1.749325E6,1.56308E5,1.265095E6,4.8423E5,1.41448E5,1.486E4,6.55218E5,6.09877E5,3.12868E5,1.71362E5,9.6756E4,4.4692E4,7.884E3,6.976E3,2.89743E5,3.65475E5,6.06537E5,3.34E3,1.7881E5,1.34058E5,9.6889E4,7.4473E4,5.9518E4,3.7238E4,2.9775E4,1.4917E4,4.96E3,2.924E3,1.583E3,5.393E3,1.11718E5,1.78025E5,1.94184E5,1.71291E5,3.60828E5,2.45709E5,2.275E3,1.065E3,9.6944E4,8.1866E4,7.4455E4,5.9603E4,5.2112E4,4.4777E4,3.7178E4,3.7295E4,2.9797E4,2.9721E4,1.2793E4,2.4445E4,1.0051E4,1.9724E4,3.373E3,1.1544E4,2.34E3,2.62E3,7.27E2,2.197E3,3.2E2,1.263E3,8.71E2,4.522E3,4.4581E4,6.7137E4,8.856E4,8.9465E4,9.7347E4,9.6837E4,8.8778E4,8.2513E4,3.59602E5,1.226E3,1.34229E5,1.1148E5,1.214E3,1.061E3,1.061E3,4E0,1.347E3,9.5597E4,2.096E3,7.977E4,1.402E3,7.3053E4,7.99E2,5.8804E4,6.05E2,5.1507E4,4.04E2,4.4373E4,2.98E2,3.688E4,1.0522E4,2.6773E4,6.887E3,2.291E4,8.745E3,2.0976E4,3.86E3,8.933E3,1.3738E4,1.0707E4,3.981E3,6.07E3,9.014E3,1.071E4,8.21E2,2.552E3,5.481E3,6.063E3,9.65E2,1.375E3,5.82E2,2.038E3,2.49E2,4.78E2,4.3E2,1.767E3,1.14E2,2.06E2,9.11E2,3.52E2,6.95E2,1.76E2,6.63E2,3.859E3,1.4694E4,2.9887E4,2.9916E4,3.7221E4,4.4031E4,4.4529E4,4.4601E4,4.4864E4,5.1793E4,4.5554E4,5.1077E4,4.576E4,4.3454E4,4.5324E4,3.7745E4,4.4768E4,1.93179E5,1.66423E5,1.223E3,3E0,6.7413E4,6.6816E4,5.9374E4,5.2106E4,9.07E2,3.07E2,1.001E3,6E1,9.72E2,8.9E1,3.09E2,1.038E3,5.1257E4,4.434E4,5.38E2,1.558E3,4.3155E4,3.6615E4,3.47E2,1.055E3,3.6489E4,3.6564E4,1.98E2,6.01E2,2.9351E4,2.9453E4,1.42E2,4.63E2,1.945E4,3.2057E4,1.23E2,2.81E2,1.6341E4,2.8032E4,4E1,2.58E2,1.1158E4,2.5722E4,1.38E2,1.0384E4,1.5689E4,1.1084E4,8.9E1,6.798E3,1.1085E4,1.1825E4,2.709E3,6.036E3,1.0097E4,1.0879E4,1.33E3,2.53E3,2.25E3,6.683E3,8.693E3,5.045E3,5.11E3,5.597E3,2.707E3,1.274E3,1.377E3,4.693E3,4.246E3,4.768E3,5.073E3,5.637E3,4.07E2,4.14E2,3.95E2,2.157E3,1.208E3,4.273E3,1.391E3,4.672E3,3.3E1,9.32E2,4.41E2,9.34E2,5.11E2,7.1E1,1.902E3,1.36E2,1.13E2,3.65E2,7.13E2,1.054E3,5E1,1.56E2,7.6E1,6.19E2,1.5E2,2.6E1,2.25E2,4.38E2,3.639E3,2.2E2],"tree_param":{"num_deleted":"0","num_feature":"7","num_nodes":"243","size_leaf_vector":"1"}},{"base_weights":[4.648788E1,-2.4032064E4,2.837039E5,-5.021608E4,4.326954E4,2.270542E5,7.906254E5,-6.9917375E4,-2.9534139E4,2.067449E4,8.55462E4,1.8261095E5,3.423761E5,5.619602E5,1.02056206E6,-8.2221914E4,-6.0839074E4,-3.8847586E4,-1.6106759E4,8.178341E3,3.6462133E4,6.8771625E4,1.07263914E5,1.5701977E5,2.2371662E5,3.0276797E5,4.0256794E5,2.4856342E4,5.8133206E5,3.5136496E4,1.0767958E6,-9.158029E4,-7.7730555E4,-6.6094086E4,-5.515298E4,-4.4180918E4,-3.333363E4,-2.1471676E4,-1.0025068E4,2.1873835E3,1.5201764E4,2.9254707E4,4.4425652E4,6.076881E4,7.807052E4,9.6572734E4,1.1798721E5,1.4237752E5,1.7162928E5,2.0880544E5,2.4613219E5,2.883098E5,3.3141028E5,3.7193384E5,4.3305266E5,5.7126256E5,6.0205344E5,1.3175226E6,1.0297976E6,-9.9095555E4,-8.910431E4,-8.144343E4,-7.4823E4,-6.8806766E4,-6.3363355E4,-5.788844E4,-5.2415527E4,-4.7161094E4,-4.1448402E4,-3.3393277E4,6.8095575E5,-2.4206584E4,-1.871969E4,-1.3067603E4,-7.0404424E3,-6.4201105E2,5.6144155E3,1.2127246E4,1.8906992E4,2.5625666E4,3.2873605E4,4.081124E4,4.8885402E4,5.7151977E4,6.560533E4,7.345445E4,8.268022E4,9.269593E4,1.0233213E5,1.1325825E5,1.25074E5,1.3623412E5,1.4848711E5,1.6284269E5,1.8043206E5,2.0223556E5,2.2186956E5,2.3729464E5,2.550082E5,2.7573625E5,3.009781E5,1.6761146E4,1.6374205E4,1.8184834E4,1.8893537E4,2.0647797E4,4.4276412E5,2.802855E4,6.003428E5,5.6900156E5,3.0807932E4,8.361569E5,1.4467531E6,3.989363E4,1.060317E6,-5.175247E3,-4.8449624E3,-4.5857485E3,-4.352283E3,-4.164982E3,-3.995239E3,-3.8233157E3,-3.6575266E3,-3.5159368E3,-3.3760085E3,-3.2320833E3,-3.095095E3,-2.96089E3,-2.8268474E3,-2.6895723E3,-2.5522732E3,-2.4248723E3,-2.291782E3,-2.1501565E3,-2.0039268E3,-4.4967783E3,-1.6357675E3,1.7938576E4,4.279409E4,-1.285919E3,-1.1509618E3,-1.0194497E3,-8.7312646E2,-7.2323444E2,-5.8403064E2,-4.3260318E2,-2.7264154E2,-1.027903E2,5.7875668E1,2.0407451E2,3.5634314E2,5.196346E2,6.930324E2,8.509088E2,1.00742725E3,1.216489E3,1.3780947E3,1.5719297E3,1.7515383E3,1.959411E3,2.1648674E3,2.350235E3,2.5371497E3,2.7427612E3,2.970506E3,3.2138123E3,3.413893E3,3.5986365E3,3.8188457E3,4.0512322E3,4.2977905E3,4.544506E3,4.815556E3,5.2021523E3,5.003233E3,5.4282266E3,5.7782407E3,6.134722E3,6.372397E3,6.6704805E3,6.949875E3,7.258987E3,7.588355E3,7.9466245E3,8.333272E3,8.771886E3,9.268578E3,9.814539E3,1.04100205E4,1.1215894E4,1.0924376E4,1.2013755E4,1.1703225E4,1.2888336E4,1.2573726E4,1.3952011E4,1.3602425E4,1.5217869E4,1.4837635E4,2.2350328E4,2.1623842E4,2.8383428E4,3.0530047E4,3.0816441E4,2.7606389E4,4.4755934E4,3.420617E4,7.833792E4,6.562881E4,4.538265E4,5.465377E4],"categories":[],"categories_nodes":[],"categories_segments":[],"categories_sizes":[],"default_left":[0,0,0,0,0,0,0,0,0,0,0,0,0,0,0,0,0,0,0,0,0,0,0,0,0,0,0,0,0,0,0,0,0,0,0,0,0,0,0,0,0,0,0,0,0,0,0,0,0,0,0,0,0,0,0,0,0,0,0,0,0,0,0,0,0,0,0,0,0,0,0,0,0,0,0,0,0,0,0,0,0,0,0,0,0,0,0,0,0,0,0,0,0,0,0,0,0,0,0,0,0,0,0,0,0,0,0,0,0,0,0,0,0,0,0,0,0,0,0,0,0,0,0,0,0,0,0,0,0,0,0,0,0,0,0,0,0,0,0,0,0,0,0,0,0,0,0,0,0,0,0,0,0,0,0,0,0,0,0,0,0,0,0,0,0,0,0,0,0,0,0,0,0,0,0,0,0,0,0,0,0,0,0,0,0,0,0,0,0,0,0,0,0,0,0,0,0,0,0,0,0,0,0,0,0,0,0,0,0,0,0],"id":7,"left_children":[1,3,5,7,9,11,13,15,17,19,21,23,25,27,29,31,33,35,37,39,41,43,45,47,49,51,53,-1,55,-1,57,59,61,63,65,67,69,71,73,75,77,79,81,83,85,87,89,91,93,95,97,99,101,103,105,107,109,111,113,115,117,119,121,123,125,127,129,131,133,135,137,139,141,143,145,147,149,151,153,155,157,159,161,163,165,167,169,171,173,175,177,179,181,183,185,187,189,191,193,195,197,-1,-1,-1,-1,-1,199,-1,201,203,-1,205,207,-1,209,-1,-1,-1,-1,-1,-1,-1,-1,-1,-1,-1,-1,-1,-1,-1,-1,-1,-1,-1,-1,-1,-1,-1,-1,-1,-1,-1,-1,-1,-1,-1,-1,-1,-1,-1,-1,-1,-1,-1,-1,-1,-1,-1,-1,-1,-1,-1,-1,-1,-1,-1,-1,-1,-1,-1,-1,-1,-1,-1,-1,-1,-1,-1,-1,-1,-1,-1,-1,-1,-1,-1,-1,-1,-1,-1,-1,-1,-1,-1,-1,-1,-1,-1,-1,-1,-1,-1,-1,-1,-1,-1,-1,-1,-1,-1,-1],"loss_changes":[1.3014303E16,3.0950965E15,4.281231E15,5.1520173E14,4.6991183E14,6.8726295E14,7.8736736E14,7.233074E13,7.714117E13,6.3247403E13,6.2413123E13,1.0179502E14,8.881429E13,9.150965E12,1.327714E14,1.1548496E13,1.1130945E13,1.0709669E13,8.24273E12,7.5296953E12,8.1283934E12,7.1895404E12,8.548797E12,1.2738605E13,1.2362392E13,9.223308E12,1.3662023E13,0E0,8.6208047E11,0E0,7.044015E13,1.6501399E12,1.9994415E12,1.430157E12,1.3372448E12,1.505688E12,7.6526586E12,1.00979966E12,1.0751679E12,9.3643584E11,9.381903E11,9.7564544E11,1.0826673E12,9.0523147E11,9.453458E11,8.254726E11,1.2349373E12,1.0983708E12,2.280158E12,1.8699214E12,1.1028671E12,2.3002234E12,3.1541166E9,2.2394228E11,1.2640626E12,8.7926034E11,5.2217407E11,6.3050254E13,3.6767068E13,2.0384317E11,3.5245575E11,2.2632464E11,2.807835E11,1.8418028E11,1.7632854E11,1.575045E11,1.6590989E11,1.546356E11,2.0399417E11,6.8611096E12,5.3830956E11,1.202465E11,1.400562E11,1.1345173E11,1.5289732E11,1.345909E11,1.0123005E11,1.3522541E11,8.72562E10,9.24886E10,1.1413121E11,1.48298E11,1.02835945E11,1.5096139E11,7.456634E10,9.129322E10,1.1431995E11,1.3722085E11,4.791573E10,2.2961298E11,6.856848E10,9.754273E10,1.3995554E11,1.9703162E11,3.3524233E11,4.859353E11,1.271713E10,1.5435039E10,7.1806484E9,1.5703474E10,1.597191E10,0E0,0E0,0E0,0E0,0E0,2.4159191E10,0E0,9.395241E8,1.17306294E11,0E0,1.368702E12,1.1034442E13,0E0,2.2477711E13,0E0,0E0,0E0,0E0,0E0,0E0,0E0,0E0,0E0,0E0,0E0,0E0,0E0,0E0,0E0,0E0,0E0,0E0,0E0,0E0,0E0,0E0,0E0,0E0,0E0,0E0,0E0,0E0,0E0,0E0,0E0,0E0,0E0,0E0,0E0,0E0,0E0,0E0,0E0,0E0,0E0,0E0,0E0,0E0,0E0,0E0,0E0,0E0,0E0,0E0,0E0,0E0,0E0,0E0,0E0,0E0,0E0,0E0,0E0,0E0,0E0,0E0,0E0,0E0,0E0,0E0,0E0,0E0,0E0,0E0,0E0,0E0,0E0,0E0,0E0,0E0,0E0,0E0,0E0,0E0,0E0,0E0,0E0,0E0,0E0,0E0,0E0,0E0,0E0,0E0,0E0,0E0,0E0,0E0,0E0,0E0],"parents":[2147483647,0,0,1,1,2,2,3,3,4,4,5,5,6,6,7,7,8,8,9,9,10,10,11,11,12,12,13,13,14,14,15,15,16,16,17,17,18,18,19,19,20,20,21,21,22,22,23,23,24,24,25,25,26,26,28,28,30,30,31,31,32,32,33,33,34,34,35,35,36,36,37,37,38,38,39,39,40,40,41,41,42,42,43,43,44,44,45,45,46,46,47,47,48,48,49,49,50,50,51,51,52,52,53,53,54,54,55,55,56,56,57,57,58,58,59,59,60,60,61,61,62,62,63,63,64,64,65,65,66,66,67,67,68,68,69,69,70,70,71,71,72,72,73,73,74,74,75,75,76,76,77,77,78,78,79,79,80,80,81,81,82,82,83,83,84,84,85,85,86,86,87,87,88,88,89,89,90,90,91,91,92,92,93,93,94,94,95,95,96,96,97,97,98,98,99,99,100,100,106,106,108,108,109,109,111,111,112,112,114,114],"right_children":[2,4,6,8,10,12,14,16,18,20,22,24,26,28,30,32,34,36,38,40,42,44,46,48,50,52,54,-1,56,-1,58,60,62,64,66,68,70,72,74,76,78,80,82,84,86,88,90,92,94,96,98,100,102,104,106,108,110,112,114,116,118,120,122,124,126,128,130,132,134,136,138,140,142,144,146,148,150,152,154,156,158,160,162,164,166,168,170,172,174,176,178,180,182,184,186,188,190,192,194,196,198,-1,-1,-1,-1,-1,200,-1,202,204,-1,206,208,-1,210,-1,-1,-1,-1,-1,-1,-1,-1,-1,-1,-1,-1,-1,-1,-1,-1,-1,-1,-1,-1,-1,-1,-1,-1,-1,-1,-1,-1,-1,-1,-1,-1,-1,-1,-1,-1,-1,-1,-1,-1,-1,-1,-1,-1,-1,-1,-1,-1,-1,-1,-1,-1,-1,-1,-1,-1,-1,-1,-1,-1,-1,-1,-1,-1,-1,-1,-1,-1,-1,-1,-1,-1,-1,-1,-1,-1,-1,-1,-1,-1,-1,-1,-1,-1,-1,-1,-1,-1,-1,-1,-1,-1,-1,-1,-1,-1],"split_conditions":[1.1461833E0,-3.3461776E-2,4.1865816E0,-4.3671718E-1,4.638456E-1,2.3233695E0,5.921932E0,-6.291241E-1,-2.3631892E-1,1.9459884E-1,7.675166E-1,1.6748413E0,3.071482E0,4.279661E0,6.0449414E0,-7.4653536E-1,-5.326133E-1,-3.3836222E-1,-1.3919339E-1,7.595814E-2,3.218456E-1,6.089192E-1,9.3410534E-1,1.363179E0,2.0153954E0,2.7671964E0,3.493179E0,2.4856342E4,5.7732196E0,3.5136496E4,-2.3055072E-1,-8.3136654E-1,-6.875224E-1,-5.8056134E-1,-4.8527998E-1,-3.8999858E-1,2.5590155E0,-1.896003E-1,-9.001589E-2,2.2477621E-2,1.3743E-1,2.5545597E-1,3.9622656E-1,5.425296E-1,6.8391484E-1,8.634127E-1,1.0564344E0,1.2476119E0,1.5021054E0,1.8850751E0,2.1567807E0,2.5262265E0,-2.0184505E-1,3.0709088E0,3.5100927E0,6.391204E0,4.403478E0,6.391204E0,5.7732196E0,-8.76241E-1,-7.8526264E-1,-7.176436E-1,-6.5678644E-1,-6.063795E-1,-5.553579E-1,-5.086393E-1,-4.606912E-1,-4.1335788E-1,-3.6602455E-1,-5.115759E-1,4.403478E0,-2.160332E-1,-1.6869988E-1,-1.15219355E-1,-6.296827E-2,-3.3405616E-3,4.8295803E-2,1.0546464E-1,1.5955988E-1,2.3086724E-1,2.954127E-1,3.6549062E-1,4.2880663E-1,5.013434E-1,5.861746E-1,6.5748197E-1,7.398543E-1,8.296032E-1,3.6462795E-2,9.722179E-1,1.0994647E0,1.1941314E0,1.3029366E0,1.4295685E0,1.5814041E0,1.7744257E0,3.8503247E-1,-2.0184505E-1,1.5541911E-1,-2.0184505E-1,-8.985631E-3,1.6761146E4,1.6374205E4,1.8184834E4,1.8893537E4,2.0647797E4,1.0185441E0,2.802855E4,3.782439E0,-2.3363777E-1,3.0807932E4,-2.3363777E-1,1.0680906E-1,3.989363E4,6.391204E0,-5.175247E3,-4.8449624E3,-4.5857485E3,-4.352283E3,-4.164982E3,-3.995239E3,-3.8233157E3,-3.6575266E3,-3.5159368E3,-3.3760085E3,-3.2320833E3,-3.095095E3,-2.96089E3,-2.8268474E3,-2.6895723E3,-2.5522732E3,-2.4248723E3,-2.291782E3,-2.1501565E3,-2.0039268E3,-4.4967783E3,-1.6357675E3,1.7938576E4,4.279409E4,-1.285919E3,-1.1509618E3,-1.0194497E3,-8.7312646E2,-7.2323444E2,-5.8403064E2,-4.3260318E2,-2.7264154E2,-1.027903E2,5.7875668E1,2.0407451E2,3.5634314E2,5.196346E2,6.930324E2,8.509088E2,1.00742725E3,1.216489E3,1.3780947E3,1.5719297E3,1.7515383E3,1.959411E3,2.1648674E3,2.350235E3,2.5371497E3,2.7427612E3,2.970506E3,3.2138123E3,3.413893E3,3.5986365E3,3.8188457E3,4.0512322E3,4.2977905E3,4.544506E3,4.815556E3,5.2021523E3,5.003233E3,5.4282266E3,5.7782407E3,6.134722E3,6.372397E3,6.6704805E3,6.949875E3,7.258987E3,7.588355E3,7.9466245E3,8.333272E3,8.771886E3,9.268578E3,9.814539E3,1.04100205E4,1.1215894E4,1.0924376E4,1.2013755E4,1.1703225E4,1.2888336E4,1.2573726E4,1.3952011E4,1.3602425E4,1.5217869E4,1.4837635E4,2.2350328E4,2.1623842E4,2.8383428E4,3.0530047E4,3.0816441E4,2.7606389E4,4.4755934E4,3.420617E4,7.833792E4,6.562881E4,4.538265E4,5.465377E4],"split_indices":[4,4,4,4,4,4,4,4,4,4,4,4,4,5,5,4,4,4,4,4,4,4,4,4,4,4,4,0,3,0,3,4,4,4,4,4,6,4,4,4,4,4,4,4,4,4,4,4,4,4,4,4,0,5,5,6,6,6,3,4,4,4,4,4,4,4,4,4,4,6,6,4,4,4,4,4,4,4,4,4,4,4,4,4,4,4,4,4,0,4,4,4,4,4,4,4,0,0,0,0,0,0,0,0,0,0,0,0,3,6,0,6,0,0,6,0,0,0,0,0,0,0,0,0,0,0,0,0,0,0,0,0,0,0,0,0,0,0,0,0,0,0,0,0,0,0,0,0,0,0,0,0,0,0,0,0,0,0,0,0,0,0,0,0,0,0,0,0,0,0,0,0,0,0,0,0,0,0,0,0,0,0,0,0,0,0,0,0,0,0,0,0,0,0,0,0,0,0,0,0,0,0,0,0,0,0,0,0,0,0,0],"split_type":[0,0,0,0,0,0,0,0,0,0,0,0,0,0,0,0,0,0,0,0,0,0,0,0,0,0,0,0,0,0,0,0,0,0,0,0,0,0,0,0,0,0,0,0,0,0,0,0,0,0,0,0,0,0,0,0,0,0,0,0,0,0,0,0,0,0,0,0,0,0,0,0,0,0,0,0,0,0,0,0,0,0,0,0,0,0,0,0,0,0,0,0,0,0,0,0,0,0,0,0,0,0,0,0,0,0,0,0,0,0,0,0,0,0,0,0,0,0,0,0,0,0,0,0,0,0,0,0,0,0,0,0,0,0,0,0,0,0,0,0,0,0,0,0,0,0,0,0,0,0,0,0,0,0,0,0,0,0,0,0,0,0,0,0,0,0,0,0,0,0,0,0,0,0,0,0,0,0,0,0,0,0,0,0,0,0,0,0,0,0,0,0,0,0,0,0,0,0,0,0,0,0,0,0,0,0,0,0,0,0,0],"sum_hessian":[1.905443E6,1.756354E6,1.49089E5,1.264424E6,4.9193E5,1.34104E5,1.4985E4,6.47563E5,6.16861E5,3.2059E5,1.7134E5,9.6801E4,3.7303E4,7.515E3,7.47E3,2.74926E5,3.72637E5,3.64226E5,2.52635E5,1.7895E5,1.4164E5,9.6674E4,7.4666E4,5.9662E4,3.7139E4,2.2502E4,1.4801E4,1.735E3,5.78E3,1.125E3,6.345E3,8.915E4,1.85776E5,1.93654E5,1.78983E5,1.85142E5,1.79084E5,1.34226E5,1.18409E5,9.6574E4,8.2376E4,7.4352E4,6.7288E4,5.1962E4,4.4712E4,3.7394E4,3.7272E4,2.9803E4,2.9859E4,2.2309E4,1.483E4,1.4961E4,7.541E3,7.389E3,7.412E3,3.909E3,1.871E3,1.032E3,5.313E3,2.2083E4,6.7067E4,8.1577E4,1.04199E5,9.7136E4,9.6518E4,8.9514E4,8.9469E4,8.855E4,9.6592E4,1.7907E5,1.4E1,6.7318E4,6.6908E4,5.8634E4,5.9775E4,5.29E4,4.3674E4,4.5022E4,3.7354E4,3.7128E4,3.7224E4,3.7172E4,3.0116E4,2.9737E4,2.2225E4,2.2349E4,2.2363E4,2.236E4,1.5034E4,2.2365E4,1.4907E4,1.4872E4,1.4931E4,1.4953E4,1.4906E4,1.4855E4,7.454E3,7.445E3,7.385E3,7.52E3,7.441E3,3.783E3,3.758E3,3.121E3,4.268E3,2.429E3,4.983E3,2.873E3,1.036E3,5.72E2,1.299E3,2.2E2,8.12E2,6.21E2,4.692E3,7.327E3,1.4756E4,2.955E4,3.7517E4,3.6949E4,4.4628E4,5.2535E4,5.1664E4,4.4632E4,5.2504E4,5.1462E4,4.5056E4,4.5105E4,4.4409E4,4.462E4,4.4849E4,4.4076E4,4.4474E4,4.5229E4,5.1363E4,2.12E3,1.7695E5,6E0,8E0,2.9604E4,3.7714E4,2.8736E4,3.8172E4,2.9206E4,2.9428E4,2.9661E4,3.0114E4,2.9625E4,2.3275E4,2.1692E4,2.1982E4,2.2507E4,2.2515E4,1.4821E4,2.2533E4,2.225E4,1.4878E4,2.2363E4,1.4861E4,2.25E4,1.4672E4,1.4978E4,1.5138E4,1.4755E4,1.4982E4,1.486E4,7.365E3,1.4847E4,7.502E3,1.4872E4,7.491E3,1.4929E4,7.431E3,8.543E3,6.491E3,7.385E3,1.498E4,7.471E3,7.436E3,7.379E3,7.493E3,7.457E3,7.474E3,7.413E3,7.54E3,7.43E3,7.476E3,7.457E3,7.398E3,4.286E3,3.168E3,3.834E3,3.611E3,4.107E3,3.278E3,3.927E3,3.593E3,4.095E3,3.346E3,3.498E3,1.485E3,2.61E2,7.75E2,1.41E2,4.31E2,1.55E2,6.5E1,4.23E2,3.89E2,8.34E2,3.858E3],"tree_param":{"num_deleted":"0","num_feature":"7","num_nodes":"211","size_leaf_vector":"1"}},{"base_weights":[-2.5481682E1,-2.2858215E4,2.6908712E5,-4.7440453E4,4.180875E4,2.155868E5,7.4955444E5,-6.598569E4,-2.7284582E4,2.0169943E4,8.128768E4,1.7349308E5,3.25332E5,5.3343575E5,9.679883E5,-7.7314625E4,-5.674033E4,-3.6469336E4,-1.4952058E4,8.227749E3,3.4646305E4,6.5346332E4,1.0193024E5,1.4922006E5,2.1249122E5,2.8761084E5,3.8247753E5,2.3614096E4,5.5195694E5,3.3402137E4,1.02150856E6,-8.559189E4,-7.2371336E4,-6.1581582E4,-5.1334418E4,-4.0415668E4,-3.0110166E4,-2.0121822E4,-8.821226E3,2.5055916E3,1.4440216E4,2.7784863E4,4.21882E4,5.774613E4,7.417876E4,9.173186E4,1.1210487E5,1.3525544E5,1.6305312E5,1.9840867E5,2.3374714E5,2.7384766E5,3.1492988E5,3.5339384E5,4.1132916E5,2.7107678E4,2.8620572E4,1.2527061E6,9.753299E5,-9.177135E4,-8.2482734E4,-7.546728E4,-6.952359E4,-6.3985203E4,-5.8813348E4,-5.372473E4,-4.872366E4,-4.350037E4,-3.758254E4,-3.0159967E4,5.4289008E4,-2.2995252E4,-1.7496678E4,-1.1750793E4,-5.911468E3,-2.0834634E2,5.333882E3,1.1525593E4,1.796382E4,2.4338002E4,3.1214332E4,3.8775492E4,4.6431992E4,5.429163E4,6.234039E4,6.979074E4,7.855601E4,8.80587E4,9.7207945E4,1.0533088E5,1.1657023E5,1.2943457E5,1.4106445E5,1.5472762E5,1.7137608E5,1.9214105E5,2.1086122E5,2.2544188E5,2.4215742E5,2.6195989E5,2.858639E5,1.5915611E4,1.5549179E4,1.7278576E4,1.7951592E4,1.9621148E4,4.2061344E5,1.3836944E6,4.013715E4,7.538796E5,1.0042555E6,-4.916363E3,-4.5071655E3,-4.227691E3,-4.0213325E3,-3.8533423E3,-3.6936365E3,-3.5419211E3,-3.399693E3,-3.2680562E3,-3.1302656E3,-3.0010562E3,-2.879661E3,-2.749222E3,-2.621738E3,-2.4896855E3,-2.3733665E3,-2.2416023E3,-2.088368E3,-1.9538671E3,-1.8285842E3,-1.5120356E3,1.54211455E4,-1.2216002E3,-1.0935507E3,-9.534279E2,-7.996928E2,-6.5650305E2,-5.190568E2,-3.7385605E2,-2.1636087E2,-7.9436554E1,5.556915E1,1.9362689E2,3.3854062E2,4.940733E2,6.583324E2,8.3745294E2,9.869054E2,1.1223059E3,1.2795033E3,1.4572714E3,1.6302899E3,1.8210413E3,2.0177727E3,2.2323267E3,2.4103142E3,2.6060613E3,2.8219143E3,3.0542307E3,3.2421106E3,3.4194673E3,3.6273738E3,3.768826E3,4.0090867E3,4.318304E3,4.573734E3,4.7646514E3,4.9555063E3,5.157974E3,5.372384E3,5.7158135E3,6.05456E3,6.338513E3,6.602104E3,6.8959854E3,7.208169E3,7.549841E3,7.9196733E3,8.329538E3,8.805435E3,9.324272E3,9.890674E3,1.0649562E4,1.0361597E4,1.1416827E4,1.1116332E4,1.2278315E4,1.1969373E4,1.323732E4,1.2901194E4,1.4455015E4,1.4095336E4,2.126435E4,2.0588357E4,5.4784465E4,7.082412E4,4.04217E4,3.6206742E4,5.0571402E4,4.3623918E4],"categories":[],"categories_nodes":[],"categories_segments":[],"categories_sizes":[],"default_left":[0,0,0,0,0,0,0,0,0,0,0,0,0,0,0,0,0,0,0,0,0,0,0,0,0,0,0,0,0,0,0,0,0,0,0,0,0,0,0,0,0,0,0,0,0,0,0,0,0,0,0,0,0,0,0,0,0,0,0,0,0,0,0,0,0,0,0,0,0,0,0,0,0,0,0,0,0,0,0,0,0,0,0,0,0,0,0,0,0,0,0,0,0,0,0,0,0,0,0,0,0,0,0,0,0,0,0,0,0,0,0,0,0,0,0,0,0,0,0,0,0,0,0,0,0,0,0,0,0,0,0,0,0,0,0,0,0,0,0,0,0,0,0,0,0,0,0,0,0,0,0,0,0,0,0,0,0,0,0,0,0,0,0,0,0,0,0,0,0,0,0,0,0,0,0,0,0,0,0,0,0,0,0,0,0,0,0,0,0,0,0,0,0,0,0,0,0,0,0,0,0],"id":8,"left_children":[1,3,5,7,9,11,13,15,17,19,21,23,25,27,29,31,33,35,37,39,41,43,45,47,49,51,53,-1,55,-1,57,59,61,63,65,67,69,71,73,75,77,79,81,83,85,87,89,91,93,95,97,99,101,103,105,-1,-1,107,109,111,113,115,117,119,121,123,125,127,129,131,-1,133,135,137,139,141,143,145,147,149,151,153,155,157,159,161,163,165,167,169,171,173,175,177,179,181,183,185,187,189,191,-1,-1,-1,-1,-1,193,195,-1,197,199,-1,-1,-1,-1,-1,-1,-1,-1,-1,-1,-1,-1,-1,-1,-1,-1,-1,-1,-1,-1,-1,-1,-1,-1,-1,-1,-1,-1,-1,-1,-1,-1,-1,-1,-1,-1,-1,-1,-1,-1,-1,-1,-1,-1,-1,-1,-1,-1,-1,-1,-1,-1,-1,-1,-1,-1,-1,-1,-1,-1,-1,-1,-1,-1,-1,-1,-1,-1,-1,-1,-1,-1,-1,-1,-1,-1,-1,-1,-1,-1,-1,-1,-1,-1,-1,-1,-1,-1,-1,-1],"loss_changes":[1.1707539E16,2.791967E15,3.8302926E15,4.7568186E14,4.132574E14,6.193649E14,7.042936E14,6.9414188E13,6.907331E13,5.402127E13,5.635413E13,9.1709094E13,8.001578E13,8.2421765E12,1.1849707E14,1.2179856E13,9.547981E12,8.7698535E12,8.2500827E12,6.0869333E12,